<?xml version="1.0"?>
<MethodSetup Method="MLP::trainNeuralMtautau_MLP">
  <GeneralInfo>
    <Info name="TMVA Release" value="4.0.7 [262151]"/>
    <Info name="ROOT Release" value="5.27/06 [334598]"/>
    <Info name="Creator" value="veelken"/>
    <Info name="Date" value="Sun Feb 12 20:53:54 2012"/>
    <Info name="Host" value="Linux lxbuild042.cern.ch 2.6.18-238.1.1.el5 #1 SMP Wed Jan 19 11:06:36 CET 2011 x86_64 x86_64 x86_64 GNU/Linux"/>
    <Info name="Dir" value="/data1/veelken/tmp/neuralMtautau"/>
    <Info name="Training events" value="130829"/>
    <Info name="TrainingTime" value="28157.7"/>
    <Info name="AnalysisType" value="Regression"/>
  </GeneralInfo>
  <Options>
    <Option name="NCycles" modified="Yes">20000</Option>
    <Option name="HiddenLayers" modified="Yes">N+20</Option>
    <Option name="NeuronType" modified="Yes">tanh</Option>
    <Option name="RandomSeed" modified="No">1</Option>
    <Option name="EstimatorType" modified="No">MSE</Option>
    <Option name="NeuronInputType" modified="No">sum</Option>
    <Option name="V" modified="Yes">False</Option>
    <Option name="VerbosityLevel" modified="No">Default</Option>
    <Option name="VarTransform" modified="Yes">Norm</Option>
    <Option name="H" modified="Yes">False</Option>
    <Option name="CreateMVAPdfs" modified="No">False</Option>
    <Option name="IgnoreNegWeightsInTraining" modified="No">False</Option>
    <Option name="TrainingMethod" modified="Yes">BFGS</Option>
    <Option name="LearningRate" modified="No">2.000000e-02</Option>
    <Option name="DecayRate" modified="No">1.000000e-02</Option>
    <Option name="TestRate" modified="Yes">6</Option>
    <Option name="EpochMonitoring" modified="No">False</Option>
    <Option name="Sampling" modified="Yes">3.000000e-01</Option>
    <Option name="SamplingEpoch" modified="Yes">8.000000e-01</Option>
    <Option name="SamplingImportance" modified="No">1.000000e+00</Option>
    <Option name="SamplingTraining" modified="No">True</Option>
    <Option name="SamplingTesting" modified="No">False</Option>
    <Option name="ResetStep" modified="No">50</Option>
    <Option name="Tau" modified="No">3.000000e+00</Option>
    <Option name="BPMode" modified="No">sequential</Option>
    <Option name="BatchSize" modified="No">-1</Option>
    <Option name="ConvergenceImprove" modified="Yes">1.000000e-06</Option>
    <Option name="ConvergenceTests" modified="Yes">15</Option>
    <Option name="UseRegulator" modified="Yes">False</Option>
    <Option name="UpdateLimit" modified="No">10</Option>
  </Options>
  <Variables NVar="11">
    <Variable VarIndex="0" Expression="recLeg1Px" Label="recLeg1Px" Title="recLeg1Px" Unit="" Internal="recLeg1Px" Type="F" Min="9.42127e-05" Max="317.353"/>
    <Variable VarIndex="1" Expression="recLeg1Py" Label="recLeg1Py" Title="recLeg1Py" Unit="" Internal="recLeg1Py" Type="F" Min="-175.608" Max="704.174"/>
    <Variable VarIndex="2" Expression="recLeg1Pz" Label="recLeg1Pz" Title="recLeg1Pz" Unit="" Internal="recLeg1Pz" Type="F" Min="-783.625" Max="938.963"/>
    <Variable VarIndex="3" Expression="recLeg2Px" Label="recLeg2Px" Title="recLeg2Px" Unit="" Internal="recLeg2Px" Type="F" Min="7.45556e-05" Max="500.849"/>
    <Variable VarIndex="4" Expression="recLeg2Py" Label="recLeg2Py" Title="recLeg2Py" Unit="" Internal="recLeg2Py" Type="F" Min="-265.69" Max="260.32"/>
    <Variable VarIndex="5" Expression="recLeg2Pz" Label="recLeg2Pz" Title="recLeg2Pz" Unit="" Internal="recLeg2Pz" Type="F" Min="-925.777" Max="792.745"/>
    <Variable VarIndex="6" Expression="recMEtPx" Label="recMEtPx" Title="recMEtPx" Unit="" Internal="recMEtPx" Type="F" Min="-136.728" Max="705.195"/>
    <Variable VarIndex="7" Expression="recMEtPy" Label="recMEtPy" Title="recMEtPy" Unit="" Internal="recMEtPy" Type="F" Min="-326.599" Max="218.746"/>
    <Variable VarIndex="8" Expression="TMath::Min(recMEtSigmaX,1.e+2)" Label="TMath::Min(recMEtSigmaX,1.e+2)" Title="TMath::Min(recMEtSigmaX,1.e+2)" Unit="" Internal="TMath_Min_recMEtSigmaX,1.e_P_2_" Type="F" Min="1.27009" Max="100"/>
    <Variable VarIndex="9" Expression="TMath::Min(recMEtSigmaY,1.e+2)" Label="TMath::Min(recMEtSigmaY,1.e+2)" Title="TMath::Min(recMEtSigmaY,1.e+2)" Unit="" Internal="TMath_Min_recMEtSigmaY,1.e_P_2_" Type="F" Min="2.45243" Max="100"/>
    <Variable VarIndex="10" Expression="recMEtCorrXY" Label="recMEtCorrXY" Title="recMEtCorrXY" Unit="" Internal="recMEtCorrXY" Type="F" Min="-1" Max="1"/>
  </Variables>
  <Spectators NSpec="0"/>
  <Targets NTrgt="1">
    <Target TargetIndex="0" Expression="genMtautau" Label="genMtautau" Title="genMtautau" Unit="" Internal="genMtautau" Type="F" Min="50.0177" Max="564.167"/>
  </Targets>
  <Transformations NTransformations="1">
    <Transform Name="Normalize" NVariables="11" NTargets="1">
      <Class ClassIndex="0">
        <Variables>
          <Variable VarIndex="0" Min="9.4212744443211704e-05" Max="3.1735314941406250e+02"/>
          <Variable VarIndex="1" Min="-1.7560800170898438e+02" Max="7.0417382812500000e+02"/>
          <Variable VarIndex="2" Min="-7.8362518310546875e+02" Max="9.3896252441406250e+02"/>
          <Variable VarIndex="3" Min="7.4555595347192138e-05" Max="5.0084915161132812e+02"/>
          <Variable VarIndex="4" Min="-2.6568963623046875e+02" Max="2.6032046508789062e+02"/>
          <Variable VarIndex="5" Min="-9.2577728271484375e+02" Max="7.9274487304687500e+02"/>
          <Variable VarIndex="6" Min="-1.3672778320312500e+02" Max="7.0519470214843750e+02"/>
          <Variable VarIndex="7" Min="-3.2659854125976562e+02" Max="2.1874644470214844e+02"/>
          <Variable VarIndex="8" Min="1.2700868844985962e+00" Max="1.0000000000000000e+02"/>
          <Variable VarIndex="9" Min="2.4524290561676025e+00" Max="1.0000000000000000e+02"/>
          <Variable VarIndex="10" Min="-9.9999988079071045e-01" Max="1.0000000000000000e+00"/>
        </Variables>
        <Targets>
          <Target TargetIndex="0" Min="5.0017734527587891e+01" Max="5.6416674804687500e+02"/>
        </Targets>
      </Class>
    </Transform>
  </Transformations>
  <MVAPdfs/>
  <Weights>
    <Layout NLayers="3">
      <Layer Index="0" NNeurons="12">
        <Neuron NSynapses="31">
          1.4497052346307127e-01 1.5070979389506625e+00 1.0895984567650578e+00 9.9472097710513407e-01 -1.4790156589727439e+00 -2.2579760020600972e+00 6.5030279429220916e-01 1.9858756313483719e+00 -2.2093135209889647e+00 -7.6055570506398151e-01 -2.1488689807656898e+00 -1.3454889460241584e+00 -1.8742835633413224e+00 -1.7430120077588143e-01 -2.2656407574700137e+00 1.6852280084392013e+00 -9.2679555233694288e-01 2.4431227396055930e+00 7.7306302743241617e-01 2.2209968397017432e+00 7.4065743759913649e-01 1.2856813671499934e+00 -4.1722617863074835e-01 -2.9035740296330576e-01 -1.1421778294081268e+00 -6.9290417017198236e-01 1.0209837992223851e-01 -1.2986883245947708e-01 -9.2655384437149013e-01 5.3041602203625071e-01 1.0940589134441763e+00 
        </Neuron>
        <Neuron NSynapses="31">
          1.0746173575895586e+00 -3.6474318918668702e-02 8.8809039786719515e-02 -1.2741141280147061e+00 -2.0938993226098482e-01 -1.9918870728330691e+00 3.4760423590754788e+00 -1.1599931859856918e+00 4.8891265042941490e-01 9.9808376591238002e-01 -3.7599314846744697e-01 9.8628646689235455e-01 1.8466230428415829e+00 -8.8725194928759785e-02 6.0381683246450446e-01 1.3379661929842994e+00 -5.1879507135191294e-02 1.4511457645919035e+00 2.2431343582625383e+00 1.7333563302613963e+00 1.6796575203464807e+00 -3.5921017400580482e+00 1.7572477025059969e+00 -1.7485949704411770e+00 1.0236011911074105e+00 -1.5632740681628170e+00 -2.5230887613713251e+00 2.7453965969751444e+00 1.4018577001866075e+00 -1.3484274018147915e+00 6.3459769778127684e-01 
        </Neuron>
        <Neuron NSynapses="31">
          -2.5634297626599661e-01 -1.9393643613317868e+00 1.8747986528842249e+00 -2.3586531358584697e+00 1.3598611621533039e+00 -1.3150504363888857e+00 8.8854540736814158e-01 -8.6432395714466814e-01 -1.1863274171623006e+00 -1.3159921932802914e+00 6.0232910668884321e-01 2.9992347790682294e+00 1.0009164637470696e+00 1.8784637375358413e+00 -2.2882050820849402e+00 -1.7778275327109088e+00 8.1033445452942410e-01 7.7865264460889916e-01 1.8317281839604052e+00 5.4902671504593537e-01 1.1768491137699304e+00 1.4051828785934919e+00 -5.7746749122997354e-01 -1.5632211189207065e-01 6.7663281650026983e+00 -1.3000866861685936e+00 -1.6968088304143849e+00 1.4198186603650744e+00 -3.6435031112091294e-02 -3.6848560727655155e-01 6.6866711087172948e-01 
        </Neuron>
        <Neuron NSynapses="31">
          2.4543635238094028e-01 1.1160301342293597e+00 1.6061638522206332e+00 -1.4122318968044369e+00 -2.4109749227577910e+00 -2.3686951763634783e+00 4.0772289094916730e-01 -2.0021863805373457e+00 -1.6351239035533789e+00 4.9442997953227558e-01 1.9322719230577304e-01 -6.6207931229361461e-01 8.6516900275257225e-01 -6.5080365946934993e-01 -5.8064580914002095e-01 6.0073918093357304e-01 -2.4219708746693405e-01 -5.0677555717761136e-01 5.7483027212150839e-01 -5.6775036639803755e-01 1.3110753570636706e+00 -4.7659182577714884e-02 2.6714376204687662e+00 8.2436242606612009e-01 -3.9257440486802089e-02 -2.5478363721204278e-01 -1.8320677988803253e+00 -1.0331941475373010e+00 5.9179633167857393e-01 1.6607303316449148e-01 2.1566954112605803e+00 
        </Neuron>
        <Neuron NSynapses="31">
          9.1033590995892932e-01 1.0348588816818625e+00 -2.3834021283614509e-01 -1.7304351167126155e+00 -9.8336238124026332e-01 9.4174599816667159e-01 -1.8665310532378246e-01 -1.8416804743966970e+00 1.4403558000310426e+00 -1.4869159370768006e+00 1.2471419846056848e-01 1.0746967658881139e+00 1.4283515573036538e+00 -3.9838055603781615e+00 -9.0517866831403934e-02 7.6740463771273770e-01 1.7025197950140476e+00 6.0597199745859942e-01 -1.2651522576643361e+00 -1.6231768566244942e-01 -1.2073183299085763e+00 3.1637301486281513e+00 9.5571512602121889e-01 -7.7831592888065726e-01 -3.8729035680660849e-02 2.8555802316493235e+00 -1.2506083769972189e+00 4.0063277403816313e+00 1.4587004046791463e+00 -1.1042663798028924e+00 -3.6506158657235721e-01 
        </Neuron>
        <Neuron NSynapses="31">
          6.6127815564055226e-01 9.6353637132128211e-01 3.9734222688355580e-01 1.9098935452667041e+00 -2.4385467545116055e-01 1.4776801575434080e+00 -4.3271843239294283e-02 3.6217495943442291e-01 5.3024572157345329e-01 3.8366525600548029e-01 -4.0833554163805619e-01 -1.1290883039537982e+00 4.5260766481591985e-01 -4.6622200941559770e-02 -5.7697792230193405e+00 9.8388926068208782e-01 9.5596022766898214e-01 -2.2415686354299477e-01 1.3488312673255496e+00 1.1988624441859437e+00 -1.3964729380182583e+00 -1.5904321574068342e-01 -5.8935962165089018e-01 1.9035488794506322e-01 -7.1075048711283717e+00 1.4149365630027763e-01 9.3963597092180051e-01 -8.8089386256461830e-02 -1.6180751256412713e+00 7.6268564002495362e-02 1.3205514696625292e-01 
        </Neuron>
        <Neuron NSynapses="31">
          1.9400293228263545e+00 5.4473565503710359e+00 -2.2619037632928415e-01 4.1883731795350361e+00 -1.7903585082660103e+00 2.7131254812837274e-01 1.1608486213783900e+00 1.0406891477524713e+00 1.6627049389251644e-01 -1.0156626177421300e+00 -2.6450610897410711e+00 1.9568970501438239e+00 1.1887233585162895e+00 1.3584029401593714e-01 -1.7728649251584991e+00 8.7082025953206532e-01 -2.3022022866132186e-01 -8.4630742693612115e-01 2.0408686520937631e+00 1.4366093403910156e+00 2.9035358095029540e-01 -4.1500924829480278e-02 1.3159469171163840e+00 8.1892327871551085e-01 -2.2182602146249257e+00 -6.4512091042399278e-01 -2.1893023084759458e+00 -8.2662232139132896e-01 2.8137572702846576e+00 1.3093979466160961e+00 1.6355030882210875e+00 
        </Neuron>
        <Neuron NSynapses="31">
          5.8984130980586191e-01 2.9749015002132237e+00 -1.5577423105979948e+00 -7.5716053191690236e+00 -6.3388560768689917e-01 -1.1677448946864346e+00 4.4554735045092919e-01 1.5318685825586460e+00 -1.3039948033466173e+00 2.6489046706703573e-01 3.1235316613141345e-01 -1.2364064381566475e+00 -1.5746066538586865e+00 7.0756453082239032e-02 -1.2538885853820831e+00 3.2263445599886131e-01 -4.5272902582422619e-01 1.1875471159248834e+00 -1.6380536843644620e+00 1.2655184068775440e+00 -4.0002750070704363e-01 1.2296914096823885e+00 -1.3749778947514446e+00 -2.1916903378996162e+00 -1.8576180147572534e+00 -7.9553548812833474e-01 -1.2210320673551920e+00 1.4540677353059794e+00 -3.5033279524533517e-01 -2.5144980416604423e-01 -1.7889141837148745e+00 
        </Neuron>
        <Neuron NSynapses="31">
          1.7210228229120044e+00 1.3051091128789576e+00 2.1636097681294333e-01 2.6519803103233661e+00 8.7026416111666027e-01 1.1257936927582137e+00 1.0898376661151539e+00 -1.0105859534115611e+00 -1.6327668980114844e+00 1.8130933401067171e-04 -1.8983287362760981e+00 6.3034419474079473e-01 -3.7010172183121109e-01 9.3872972794090148e-01 -4.6144950468888968e-01 -6.1433615333823588e-01 -1.8524694621751914e-01 7.2017586553699886e-01 -1.3443549613891017e+00 1.1279656883015434e+00 1.7646937391405206e+00 7.3317326571135122e-01 -5.8565420870819274e-01 1.6228283344404288e+00 -1.1087789807058004e+00 -6.8342192711781280e-01 -7.1592634905720509e-01 1.0521750635058067e+00 2.6714723224466477e+00 6.2719236113741217e-01 6.5970739160780945e-01 
        </Neuron>
        <Neuron NSynapses="31">
          -1.4721865445071150e-01 -5.6658750384620415e-01 -3.2368942250933570e-02 -1.7734243489430761e+00 -1.4714497376783293e+00 -1.8565218062539708e+00 1.3255789841856683e-01 -1.4247375869791818e+00 1.1094217963636011e+00 -2.9161978507075230e+00 -6.1320822716891682e-02 2.8483048450598053e-01 2.9489683888630136e-01 -1.3303100545411763e+00 -2.0299182468642896e-01 1.2102027479485868e+00 -2.1454791907156716e+00 9.9846912945789357e-01 1.0202216486206404e+00 -1.7699337743324715e+00 -7.1090268405014245e-01 -1.8163886126739273e-01 1.1873533300006740e-01 3.0600907020659549e+00 3.1156206509363782e-01 2.7855649091726620e-01 -1.1152912557107648e+00 -8.7220344515523518e-01 1.2154368260342929e-01 4.0730216760084548e-01 -1.5060663418219293e+00 
        </Neuron>
        <Neuron NSynapses="31">
          1.6888431950687535e+00 1.2380372580277663e-01 -1.0128431069710400e+00 3.8074169709420222e-02 5.2122257337320954e-01 -2.8565933562593210e-01 2.4448617422132871e-01 -1.7421415106275464e+00 1.6010419924038488e+00 9.7714233246400184e-01 -6.3025919554827059e-01 -4.4779946023496215e+00 -1.8763352481539589e-01 6.4054368497243205e-02 1.7385668378227365e-01 1.1459103568031728e+00 8.9468133394156002e-01 1.5007668408926964e+00 -2.7262978172119851e-01 5.1426852288815061e-01 -1.4346685550056182e+00 8.0188238331294459e-02 -2.0771402242218273e+00 -1.4812995843268473e+00 1.3138738505510092e-01 -4.9623355197939397e-03 2.3711670722623129e-01 1.8753804545342342e-01 -1.3513404457313075e-01 -2.1355720548304558e-01 1.7150664707689867e-01 
        </Neuron>
        <Neuron NSynapses="31">
          -1.6227031141007413e+00 5.8402490215985647e+00 -1.9840215278163760e+00 4.8537317364582648e+00 -2.9325760233957618e+00 6.9115099786008150e-01 -1.4284341048235343e+00 1.4676939501293018e-01 -5.5890234818510165e-01 6.8505712732811541e-01 3.6700586042112695e+00 2.2023620782393576e+00 -1.1315980105676491e+00 8.7873659074736610e-01 -4.4268264267559649e+00 -2.5023243536529129e+00 1.8082979777441390e+00 -1.4075239008803198e+00 -1.6385289569946457e+00 -5.0279995738526623e-02 -2.6171825522524315e+00 4.5166448695504474e-01 -2.4620518449137827e+00 7.6315714743109753e-01 -1.9734986931088181e+00 -3.7632237393364520e+00 9.7497665581200466e-01 1.5546767421398231e+00 -2.7190841115563091e+00 2.5858367879739004e+00 -1.5422152377692273e+00 
        </Neuron>
      </Layer>
      <Layer Index="1" NNeurons="32">
        <Neuron NSynapses="1">
          -3.0780612786339436e-03 
        </Neuron>
        <Neuron NSynapses="1">
          6.8188237304261629e-02 
        </Neuron>
        <Neuron NSynapses="1">
          -4.4821161462233844e-01 
        </Neuron>
        <Neuron NSynapses="1">
          -4.2953317101463925e-02 
        </Neuron>
        <Neuron NSynapses="1">
          -9.1832677800919707e-02 
        </Neuron>
        <Neuron NSynapses="1">
          2.4097826495463460e-03 
        </Neuron>
        <Neuron NSynapses="1">
          -3.2830127891183486e-01 
        </Neuron>
        <Neuron NSynapses="1">
          -8.8676587635213504e-04 
        </Neuron>
        <Neuron NSynapses="1">
          6.7319260508099856e-03 
        </Neuron>
        <Neuron NSynapses="1">
          -2.9971260579689539e-02 
        </Neuron>
        <Neuron NSynapses="1">
          -5.4708016079033339e-01 
        </Neuron>
        <Neuron NSynapses="1">
          -1.5517756849704412e-02 
        </Neuron>
        <Neuron NSynapses="1">
          -2.0957206414862872e-01 
        </Neuron>
        <Neuron NSynapses="1">
          2.3591155164954911e-01 
        </Neuron>
        <Neuron NSynapses="1">
          -9.0514728987145868e-02 
        </Neuron>
        <Neuron NSynapses="1">
          -1.1036317716585835e-01 
        </Neuron>
        <Neuron NSynapses="1">
          5.2007104433833398e-02 
        </Neuron>
        <Neuron NSynapses="1">
          -5.0560952044185960e-02 
        </Neuron>
        <Neuron NSynapses="1">
          7.9562144975181526e-01 
        </Neuron>
        <Neuron NSynapses="1">
          -2.1920460779413280e-02 
        </Neuron>
        <Neuron NSynapses="1">
          -1.4245557360095209e+00 
        </Neuron>
        <Neuron NSynapses="1">
          -2.6883741098420383e-01 
        </Neuron>
        <Neuron NSynapses="1">
          -4.6348651494192872e-01 
        </Neuron>
        <Neuron NSynapses="1">
          1.1566985958503287e-02 
        </Neuron>
        <Neuron NSynapses="1">
          9.9082765665295655e-02 
        </Neuron>
        <Neuron NSynapses="1">
          4.3813834082469527e-01 
        </Neuron>
        <Neuron NSynapses="1">
          2.3431691397261883e-01 
        </Neuron>
        <Neuron NSynapses="1">
          1.8479756795322080e-01 
        </Neuron>
        <Neuron NSynapses="1">
          1.1926842275603886e+00 
        </Neuron>
        <Neuron NSynapses="1">
          4.0232173386677339e-01 
        </Neuron>
        <Neuron NSynapses="1">
          5.0225536262314641e-01 
        </Neuron>
        <Neuron NSynapses="1">
          -1.0322081582950509e+00 
        </Neuron>
      </Layer>
      <Layer Index="2" NNeurons="1">
        <Neuron NSynapses="0"/>
      </Layer>
    </Layout>
    <InverseHessian NElements="163216" NRows="404" NCols="404">
      <Row Index="0">
        6.1523133061664738e+05 6.0097971806174421e+01 -6.0425808015127961e+02 -4.5922363123676163e+01 9.1329113570945964e+01 -5.4083104366918533e+03 -3.1424644532238049e+03 4.6535564205365245e+02 1.7399481455936275e+03 -2.3355291458926959e+03 1.6137838972539759e+04 -4.1248369526735814e+01 -9.8238617444450540e+00 4.7316694080358317e+01 -2.6940930924278664e+01 4.0317412331957865e+04 -1.2424677599867879e+04 -5.6676261063636648e+03 -1.3460951396088665e+04 1.4671945892564190e+02 7.5346648662898006e+03 3.6180535089225536e+01 3.4660452462514158e+03 -2.0517339118754144e+03 2.0386014062532240e+01 -4.4745970946444686e+01 2.1623215156266306e+03 5.1481503869702465e+01 1.0459584652641322e+04 -2.9191823364679124e+00 -2.3322515416489159e+03 -9.0625900354774378e+04 -5.5270284689260080e+01 -1.7193031099485484e+04 -4.0826495211356516e+01 -1.7518148419179096e+02 -1.9895356717852701e+02 1.5016254115594609e+04 1.7514199110992195e+02 -1.5724272007662319e+03 -1.5653108477548949e+03 1.1789607278071460e+04 -1.0646768933372329e+02 1.0603374061957311e+02 -1.0108608396921768e+02 -6.0493478808875224e+01 9.0858538589271484e+02 6.6943306835477906e+03 1.6612934852634899e+03 1.2725321951561891e+03 9.8226862367745116e+02 1.2727863183363424e+03 -3.8827173698580580e+01 -1.1372869630848672e+03 -4.6939590780441686e+03 -8.3126492648887222e+01 -2.1897372620618029e+01 1.9379682929805276e+03 4.2675344275497693e+01 -1.5084954407578367e+04 -1.5321755114570408e+01 -7.0942183919644376e+03 -6.8698376056568319e+04 2.7189784452469901e+01 -4.2719103386406289e+02 -1.6823039969974161e+01 -2.1302823145855837e+02 3.7944140981358942e+01 1.4492885863960546e+04 -9.8081917691555573e+03 1.0683133643620131e+03 -4.6641282500614034e+02 -1.2234253282716187e+04 1.7192656787546233e+02 -1.0209146298582364e+02 5.2918900361893186e+01 -2.8542188838613459e+01 2.6520757892661321e+04 2.4156996059518674e+03 4.3926549714087014e+02 -2.2639343863113299e+03 -6.0472990947046401e+02 1.5191145788373979e+04 1.9433148696742240e+01 1.7650018756861427e+04 3.8148269967473607e+02 -1.8365273779744950e+01 -1.8120061809843463e+01 -4.0323009215337806e+03 3.0755690111826880e+01 4.4356745628371427e+03 -1.4163273770482959e+01 4.1882466708982411e+03 -7.7252873141732067e+04 5.0918292110029171e+00 9.5110850613111950e+02 -2.0591640875978214e+01 2.7603840280010508e+02 8.4152802406129194e+02 6.3254064477524153e+03 3.7418926831001645e+03 2.0757344866267431e+03 5.2523726247711529e+03 2.2042964719558411e+04 -1.5696529386736728e+02 1.8784304216064385e+01 8.0158083292949449e+00 -6.3195344673987421e+01 2.3697047600689359e+04 1.4978082774770392e+03 -9.1696007280820286e+03 5.5309840788528973e+03 5.4045810732569885e+02 -1.8794731102820751e+03 2.9975970507271558e+01 -4.0536030133541044e+03 1.4572539908537549e+03 -2.9428273095883185e+01 -4.0721654080805820e+01 -7.5039028232891833e+03 1.7692834030757908e+01 -1.0434467397444469e+03 1.9035072749202101e+01 1.1549355634497024e+03 6.6987794832182044e+04 -4.8155982392619833e+01 -4.7291294514327674e+03 -2.6653735559860273e+01 -3.3964755869456802e+01 -1.3532811039686203e+02 -5.1342658293856657e+03 -2.4328429445188594e+03 3.9664514168116966e+01 -1.0565897995810046e+03 -1.9030929510899950e+03 1.0405955314562448e+01 -2.3953946329387765e+02 -3.6853279082666837e+01 -2.4456945661509362e+01 1.5398055818618741e+02 1.5175146181983323e+03 -8.2705275801379321e+03 3.1538945953248513e+03 1.1236043069563639e+03 1.4458206934544942e+03 1.7035039990966098e+01 -4.4629150378304630e+03 3.3351480420101143e+02 -2.3086612349372174e+01 1.0023674231495022e+01 1.0228904558255892e+04 6.1329994023816511e+01 7.6863014412838515e+02 -6.4563503022996557e+01 -1.3009367614673865e+03 6.2592495605030395e+04 -8.7805250017995036e+00 1.4996624618990809e+03 2.7442618772072866e+01 -1.3321499153012047e+02 -5.4305229496583343e+02 1.3149313411224284e+03 -3.3092053632319312e+03 -9.7229720919177191e+02 4.2622842457165680e+03 -3.3310918781888322e+03 -9.0563304487335898e+01 1.8786166655189356e+02 -3.2480597486885173e+01 -4.2305211213775777e+01 2.5198367815101752e+04 -2.2039804084868229e+02 -6.4069323800652564e+03 -6.3497722636449289e+03 1.6546623109323718e+03 -2.6607695546399482e+03 -9.7987275862761827e+00 -1.7777494263144617e+03 1.0708626246366475e+02 2.3313925373148351e+01 2.1546658678420382e+01 -6.8693616191169713e+03 -1.6898911230328224e+00 -4.4582028286033128e+03 1.5169079013367675e+01 -2.3149853729297029e+03 -4.5202688988723487e+04 -7.6828478106462455e+01 -4.9319877584846381e+00 2.0199820678880680e+01 8.9124829327550287e+01 1.0919357399935834e+03 -1.6022398393871918e+04 3.7926243645741142e+03 -1.5761187195128234e+03 1.0307681515668828e+03 4.0365368266515266e+04 3.3800031852385416e+01 2.4981577874245275e+02 -7.7611902968114094e+01 -7.4341835875595734e+00 6.0380836557182556e+03 3.2867091188318918e+03 2.5509613371944988e+02 3.1916760422883326e+03 2.3691540845895493e+03 -8.2395070984453196e+02 -3.8057744875901864e+00 -2.1131078512270506e+03 1.3402238162941917e+03 -2.1457030256845183e+01 1.0668509814996767e+01 1.1495465673624494e+04 -7.5619467577381414e+00 1.2989462816321902e+03 3.9374183072818887e+01 -1.1479113144812145e+03 7.2694073334860732e+04 -2.2092959098446919e+01 -1.2525300300342819e+03 -6.8782413184099767e+01 -3.1872607903594599e+00 -2.2290535344555974e+02 -7.0678963148071634e+03 8.3554138131413929e+03 2.1480478352757054e+03 7.9015544654271707e+02 -1.9772187633248861e+04 1.3931826379001677e-01 1.5257052491126359e+02 -5.7794640506363152e+01 3.2215322929147838e+00 4.3504495621729875e+03 -1.0070542166063497e+03 -4.9091328109072401e+03 5.3543290831217200e+03 1.1321386430704447e+03 -3.5444558219105356e+03 3.5950674126694580e+00 2.2393582476920045e+02 -1.6870759584300686e+02 1.5776742955672617e+01 1.9501065602159525e+01 -2.0429235283210874e+03 1.0381785339751303e+01 2.4562347134977517e+02 -7.9983649159042312e+00 -1.2238430432181212e+03 -3.0957422733164451e+04 -1.9284411744580769e+01 -1.7395223762842925e+03 -5.6432325697776037e+01 -3.1494958017481918e+02 5.3734131943434477e+01 -3.3568883334250313e+04 -1.0053879564510724e+04 3.1612255306900961e+03 3.4771913721065630e+02 -5.0494630088369478e+04 3.1000074357300696e+02 3.2359392105581480e+02 -1.3716968742969658e+02 9.6810106096429024e+01 -4.3863274691373808e+03 -1.0189075377078950e+01 2.6590683248154692e+03 -6.5140956949681331e+03 -1.3767036544684079e+03 -6.7048608031937738e+02 -8.2199381399306546e+01 5.7437526287854344e+03 -1.2992876498978148e+02 4.9322250959016401e+01 9.8121211589929047e+01 -1.4780322592231358e+04 -8.4130759906060504e+01 -2.9016548209748544e+02 -4.7297449563079141e+01 -2.6361320587640585e+03 -1.0424637777405296e+03 -1.3482152283502984e+00 -1.7041890498535990e+03 1.0313505561829842e+01 2.4127750366298574e+02 5.6775668603889644e+03 4.7806593029138930e+03 2.0696323035150735e+03 -1.7042689071587174e+03 -2.2397003286203108e+02 -1.0732213938613539e+04 -1.1219899201626478e+02 1.1666801802615481e+02 4.7067018465957801e+01 -4.8288448585343140e+01 -3.1246830426784632e+04 -1.0707272345147467e+03 -3.1292307311137424e+03 5.1886994815797789e+02 -1.1804213603036169e+02 2.3319158981431920e+03 4.5824430009342564e+01 -3.2508707210403882e+03 1.4826706113421360e+03 -6.6012831976321094e+00 -7.2164431096047082e+01 -1.5777741748109984e+03 4.1682336661046051e+01 1.7477498591140852e+03 6.7971696767510352e+01 2.5838913656100058e+03 1.2409923285253701e+05 -2.6427076253329957e+00 3.4048812182007914e+03 1.5778386359473529e+01 -3.5836272179704544e+01 1.1257501462702639e+03 -1.0503681274001457e+04 3.5393974201424603e+03 -3.2765710575330413e+03 9.2330655035679479e+02 -5.7559401021213373e+04 -1.7127472156211056e+02 1.4571496809558013e+02 3.2720714962206046e+00 8.5379962684438482e+00 -2.4112357523420735e+04 8.8283708054282545e+02 -4.6137703478424437e+03 -1.3732877488760096e+03 -5.8687616392994335e+02 -2.7347414471739867e+03 2.6815527802377517e+00 6.9790960276599590e+03 1.0366044129692127e+03 1.0881127346331800e+01 5.9585838535012812e+00 -1.8812920229326111e+04 4.7037136926601164e+00 -4.5595226387178627e+02 3.7320385151232767e+00 -5.3016676272262475e+02 1.7247721698706245e+05 -2.9176910591729836e+01 -4.1310451096471825e+03 -9.2874865738800281e+01 1.7016620442387563e+02 -1.3116123844042886e+02 -1.0173865934806963e+04 -4.1546009587422377e+03 3.9289964807698561e+02 2.5672988920832649e+03 -2.4131118051236437e+04 -1.9671937197493179e+01 5.2291111899291991e+02 -1.0451842185192372e+02 -8.9335215111683851e+01 -3.8603908102889545e+02 -2.5301413134992472e+03 -1.5313647737752181e+03 -3.1312015198263070e+03 1.2925130756380759e+03 3.4871366071804368e+03 1.2277434778710830e+01 2.2514111742900568e+03 -1.5970495127891336e+03 -3.8257868277958124e+01 -6.0788398451854619e+01 -2.7666300192872977e+03 6.7968583556322130e+01 2.1911612420159113e+03 4.8008186701454406e+01 -4.2849537970305300e+03 -3.2613743948028934e+02 9.7304268410345118e-01 7.3169810745694112e+03 4.2066758411209210e-01 -1.5305947682285501e+01 5.1036286983727496e+03 1.8659499319994466e+04 5.2067195338455363e-01 1.6853992572171848e+01 1.0875535478748873e+01 -1.5927841106197844e+04 1.1316765627786525e+00 -1.1822227275021305e+01 -1.1580148551115144e+01 1.4991413122178290e+00 -4.2318116626221017e+03 -3.1946607236191291e+01 8.3060910790255591e+01 -3.3734921525590507e+03 3.2002784790853298e+01 -5.9518180268901215e+03 5.0254922682854986e+00 -7.1421186465870014e+03 2.0716525381828887e-02 1.5865048116231639e-01 -1.6501621256785185e+01 3.0792234041169854e+03 -6.3614684366470442e+00 -7.5804075238274008e+03 -1.6020980886679808e+01 1.0570451574692265e+03 6.3032899978031846e+03 
      </Row>
      <Row Index="1">
        6.0098018786845842e+01 1.8501465917482605e+01 -3.9930606431020337e+01 -3.8344297297477086e+00 1.0114643707910735e+00 -1.8563460949434287e+01 1.7797352310366477e+01 -2.2415388621192278e+00 -7.4817782142608138e+00 5.6484477467999312e+00 -4.2888115217882223e+01 -1.4601719077567594e+00 1.2980241488341386e+00 2.4625109099039983e+00 -2.7033870173818926e+00 -2.3261026911618501e+00 -9.9613933946814086e+00 1.6678643057114975e+01 2.1354375675039137e+00 2.1560032599651066e+01 1.7687776489529369e+01 2.0818769773601842e+00 -3.7066539946340185e+01 1.3720876673880383e+01 -4.2983631069777521e+00 -2.3068123116815524e+00 -3.2453730695780450e+01 -1.6167043050535046e-01 1.2809243891202755e+01 -3.6807451048188016e+00 -3.6406062840584589e+01 8.9834120706800604e+00 -8.2801426056448713e-01 4.0077630784084477e+01 1.9292450795229028e+00 -6.2249357858804100e-01 1.4961312007235392e+00 -6.5141077272348411e+01 7.7088041562223225e+01 -2.1607148153311812e+01 2.8465606980633140e+01 5.3834134006068780e+01 8.2224112122113979e-01 1.0322815092998729e+00 -1.5567225294115956e+00 1.5232732645514879e-01 -6.4521288486940648e+01 -1.1952383878926923e+01 -1.6357357231594108e+01 5.7334519991357979e+01 -1.1371928627242767e+01 -8.6964759294365876e+00 -6.7730118358093083e-01 -2.1350172269171708e+00 -1.8898920269232860e+01 2.2277719597161294e-02 5.2389071920048336e-01 -2.9023277755036816e+01 3.8195132968368828e-01 -1.2763847544117652e+01 7.3981533502372199e-01 4.2432129374124088e+01 -4.0141842790320879e+01 -2.8747488420233083e+00 -5.3180819299333450e+01 -9.2236700167110752e-01 -2.1735730842289369e+00 -2.4820195847815967e+00 7.8515873696695053e+01 -3.2571004975923188e+01 3.4163545123820057e+01 5.0925195991192709e+00 5.2038205966669068e+01 -3.1874097907609595e+00 -7.3946154424174324e+00 -1.5306263304469647e-01 -7.4241642974860178e-01 -6.3353423967435447e+01 -8.6169370240537546e+00 2.8393620019324146e+00 1.8073126197996743e+01 -3.0367975419415956e+00 5.7917889950699532e+01 -2.8308509626224165e-01 1.3184114381983591e+02 1.8876217468947004e+01 1.8045026570965814e+00 6.3960451453006861e-01 -7.6219851418854887e+00 -1.4093600670691853e+00 -4.7171461576216416e+00 -7.5471761801581394e-01 2.7073179460349330e+01 -1.7681101639703684e+01 -3.1293785828331377e-01 -5.1820209722390800e+01 5.8240909525299678e-01 3.0625934991831247e+00 -6.4198090870513624e-01 2.1536128168804680e+01 -2.1980911742009255e+01 2.0202556445982971e+00 -2.8477672954682021e+00 -4.7353440388238596e+01 2.4636241493263178e-01 -3.8871233423144940e+00 -5.1337234944313703e-01 6.4511422919706218e-01 -3.1634133110256016e+01 1.0295888795376186e+01 -1.9401299059683652e+01 -4.5611360263854976e+00 1.3489189710381879e+00 -3.3459940110134312e+00 3.2400928005274687e-01 -4.8382056419068022e+01 -3.6067401825310768e+00 9.5796944788867489e-01 -1.0036629849797807e-01 -1.1600069991213832e+02 1.9744520052686509e-01 -6.2965830019841178e+00 9.9925568057532854e-01 -4.0832588983964229e+01 9.6735445791937309e+00 8.4035380401169468e-01 6.5745289126890285e+01 4.0281397685552578e-01 1.2851105560705829e+00 -3.7906711346295197e-01 4.5492011215164894e+00 -6.4789279015205238e+01 -1.0832885740040695e+01 -3.1876214356915398e+00 -1.5086421911174517e+00 -1.1384946974537167e+00 -1.7547455433668251e+00 -1.1188632825271816e-01 -5.0977504874955837e-02 6.0196654678697087e+01 -1.1451262393519329e+01 1.1661703475613905e+00 -3.5213023028625329e+01 -1.5535847742269041e+01 -1.0440342794308524e+01 3.6386970106169181e-01 -5.9060241684842296e+01 1.8984108119600478e+00 1.6082965283032413e-01 -1.0207972609290450e-01 -5.5940708486072324e+01 -7.5135912002596927e-01 2.8077320121328739e+00 2.0563244247257795e-01 1.6669255069217655e+01 -1.0210050698733880e+02 1.0486162398883567e+00 -4.2025866874338931e+00 5.2089481173765506e-01 7.5735334827764955e-01 -2.5494041917845607e+00 -1.6742329171545862e+01 2.5405575818375041e+01 1.8244895179381615e+00 5.5224754315844393e+00 -9.9393656046613614e+00 1.5246427887676148e+00 -2.3961067619828853e+00 4.2150147367158830e-02 -1.5878506283903598e-01 2.3639327556011267e+00 -5.1196893365030292e+00 1.4418883887244817e+01 -8.0378937708985632e+00 1.3651115048389471e+01 -4.4493551772840356e-01 1.1379373317941388e-01 3.6339292832319757e+01 5.8165345711813359e+00 -8.0865713434139674e-01 1.1971433649540231e-02 8.9141970249869701e+01 4.4056385628616790e-01 -2.0700211092737888e+00 1.7830917319317330e-01 2.6173779640887318e+00 -7.9027197363990126e+01 4.5202457938739329e+00 -5.9934351490314384e+01 3.7053207796293974e+00 3.4623327637093837e+00 8.5620629386539804e-02 1.2425625425101180e+02 -1.1409102149428804e+01 1.4435662004885224e+01 -3.6145822278073382e+01 2.4533758613785572e+01 -1.7686570372456671e+00 -2.0404287173511761e+00 -9.7702451491805808e-01 1.7600667159214185e+00 -1.6694912172481963e+01 -5.0242255228982913e-01 -7.0028167868048286e+00 7.6068722452088878e+01 2.3420831572998651e+01 3.6591475742477172e+01 -1.3335906229170154e+00 2.6484002376378726e+01 -2.8256049085962502e+01 2.6981609333237393e+00 1.1520357550246219e+00 5.2992623060111640e+01 -6.2831011906061196e-01 -3.5447143484331178e+00 7.3343700535346912e-01 -2.3928832251258626e+01 -6.1386041091414882e+01 2.5103261065884963e+00 9.8218380642200032e+00 1.3370580460199573e-03 2.7975742637918941e+00 -2.7839534915983677e+00 6.9445644597315550e+01 1.8328116085715646e+02 -2.0869286997050949e+01 -8.2025893931924543e+00 1.6529405704276178e+02 6.5806696004805154e-01 6.6145720611580501e+00 -6.6740432745781675e-01 1.9802383253947120e-01 -2.3478120724757900e-01 -5.1504718800508726e+00 1.7252182429626146e+01 9.7262898183502102e+00 1.3093152345652403e+01 3.4530245784747876e+01 -1.8010655155772348e-01 4.3127563831302155e+01 1.0812980497692763e+01 3.4556464854619184e-01 3.1224687812532359e-01 5.1609348968708218e+01 -1.1533942442700185e-01 1.8977774309227584e+00 -2.1715720330118859e-01 1.9538219604009335e+01 -3.8257752536937176e+01 -2.8721398051929121e+00 1.3322048020108241e+01 -1.2561167095317138e-01 1.9523985141721836e+00 -2.2034321819082834e+00 4.4288999835266623e+01 3.7489337877710341e+01 3.7655049069206825e-01 2.2861889310732408e-01 -2.7685032101352590e+01 1.4394238247978741e+00 2.0459025589148787e+00 -2.4664212536092656e-01 1.6451431071626166e-01 9.4924003475312929e+01 -1.1142731972144067e+00 2.2850874379341803e+00 -7.8708607021277317e+01 1.4699036583375573e+01 -2.1122084776985730e+00 -3.9282139364838153e-01 -2.6701732349846679e+01 -6.6133912617808051e+00 3.2078409583820622e-01 6.9513516775222750e-01 -6.1639686894216993e+01 6.4177445453803128e-01 -4.4288159507057685e+00 6.4418251667698034e-01 7.5222938475549199e+00 -3.4858920176634456e+00 1.7025533666332255e+00 -6.9340969533676784e+00 7.8069048089467019e-02 1.7155889569759726e+00 1.6777828780497657e+01 1.6910803197757559e+01 -9.4941554967830825e+01 1.1303986231824183e+01 -1.4745135360811787e+01 -7.1523587433603097e-01 1.0264411851630229e-01 -5.5805631950013712e+00 -1.4054100347263621e-02 -7.8932275736600022e-01 -1.6063962558620915e+01 1.6289379877926976e+01 2.6366947432407244e+00 -1.5856738612063452e+00 -5.6474017377397558e+00 -5.6320121595726960e+00 4.4471461156608239e-01 2.2215099259038652e+01 -6.7177368862095079e+00 -8.5683217842420012e-01 -8.9403821276391660e-01 -1.7765678442229046e+01 -3.8527219527395939e-01 1.0681718974805392e+00 2.3569674405021757e-01 1.0502435676729419e+01 7.4177450219278398e+01 1.6989547260437643e-01 2.1046758230005238e+01 -1.6714819473255638e-01 -5.2131262842263126e-01 4.8894102283043139e+00 1.9683595445832225e+01 1.1329964799200555e+01 -5.7672263328157669e+00 4.8251264269900958e+00 4.4791199256170785e+01 3.1182775646210885e+00 3.3230713043487432e+00 3.5847633690496039e-02 2.4811500741924775e-01 -1.5783705537259084e+02 -8.4402601396834953e+00 1.4132568235391382e+01 -9.9346178903815598e+00 5.5750201754812236e+00 -2.8341138351162272e+01 -1.7136036901585383e-01 3.8352666094202888e+01 5.7259956716840783e+00 1.1648101001295350e-01 2.0502359701836192e-01 -3.7552328235408424e+01 -2.9839437854714723e-01 -6.6434512792972100e-01 -3.0929109741743943e-01 4.1570252125317975e+00 6.6899523809861421e+00 1.7792442661158002e+01 -8.5462369030403238e+01 1.2459547090352530e-01 4.1930145601089386e+00 7.3835384166159201e-01 -5.0983680713565263e+01 -3.5398695447651704e+01 -1.3671704448933042e+00 6.6183494920902035e+00 -1.4802053822713788e+01 -1.2746338923936449e+00 -7.7494517296088432e+00 3.7298280560068608e-01 -1.3420296114824817e+00 1.6186038932719384e+00 -2.6211705623550642e+01 -3.7109967402283928e+01 -6.4898737866494116e+00 7.4351795006531631e+00 -3.3771813659477630e+00 1.0584311029026106e+00 -6.2823771925442315e+00 -1.7765912556458915e+01 -1.7870163226390305e+00 -1.4173831906078462e+00 3.2678217271233734e+01 -4.0906424548191644e-01 -2.1536853975536673e+01 -1.6376282313183053e+00 -7.3213072283816871e+01 2.3543310432411602e-01 -1.2498271047548840e-01 -7.2284288744150402e+01 1.6394161848637331e-03 -8.5547949049726651e-02 2.5600577544942400e+00 2.1025349536161649e+01 1.5804926443671249e-02 -5.8354081453459661e-02 -3.9523348519272639e-02 6.9393185772934842e+00 -1.7214573312833027e-02 -2.0678801988964390e+00 -4.0653101326263652e-02 1.7910138057250981e-02 -7.5748809835348023e+00 2.9762274256435217e-01 1.8604370034142104e-01 -1.9304850263200983e+01 1.3200309040980618e-01 -1.7085624468189486e+01 8.8294563643161350e-02 -1.3807973984170420e+01 3.6365003611755431e-02 -2.9386808987775126e-02 -1.6308908755295032e-02 -1.3440516539901424e+01 -4.8806409178872023e-03 4.3380274351136059e+01 -3.4885931352000088e-01 8.1825497709672476e+01 1.8899111741353241e+01 
      </Row>
      <Row Index="2">
        -6.0425836517514153e+02 -3.9930595682599268e+01 7.0045820547673929e+03 -2.0115311618859948e+01 -2.8605208648311393e+01 3.4718275410429726e+02 1.3405592581383316e+03 -1.9939973032079092e+03 2.0979811434666981e+03 -6.3795811479620397e+02 1.3530434090636295e+03 -1.3041423299813914e+01 2.5681319760904574e+02 -3.0801870437712964e-01 -2.0747010466521800e+01 8.4455497371127512e+02 -4.7196017764808857e+00 -1.3635751028021573e+02 4.8426900125237426e+03 -1.2329359272619459e+02 8.9554981903147052e+02 -1.2817256948295267e+01 -9.5005414307092087e+02 -5.9446061380978620e+02 -2.4546184033030150e+00 -4.5990213959999116e+00 -9.6449230884877943e+02 -4.6578252154366648e+00 4.8062320788948330e+02 1.0469793320321541e+00 1.0653449701944960e+03 3.7942618038513683e+02 2.0562272646913291e+00 7.6728516707415638e+03 -7.5171275454626851e-01 -4.1726285997155230e+00 3.7625894247205451e+00 1.1288873396255328e+03 1.1656577039303875e+03 -5.3786056120816738e+01 -1.2670755772462276e+03 -1.7503905056520300e+03 7.6834565108313939e+01 -1.8773884335956069e+01 -2.3259153581197985e+01 4.0410583175598447e-01 -4.5773345601758047e+02 -1.6695709342798023e+02 -3.7047502823019789e+02 7.2856268873386680e+03 5.1727667911938488e+02 -2.0108715511579830e+03 1.8061078572085588e+01 -1.6786355058117151e+03 1.0374039630287748e+03 -8.5652653152326508e-02 -2.4957182729644716e+00 -5.3789000860568103e+02 -3.0818506634953124e+01 -8.9259844962074203e+02 1.0207637443429405e+01 5.1409621676050147e+03 1.6357176509006104e+03 -1.0511402043910895e+01 5.5624113509775298e+03 -1.2009099062295281e+01 -4.6796275825434464e+01 2.4250162478182756e+02 -1.9410545957398281e+03 -8.7505719978849243e+01 -2.3348968720499465e+03 1.3984406167824916e+03 3.1665776271899531e+03 1.1964479957664000e+01 5.0627320418476245e+01 -4.0723738710497361e+00 -1.2171820752401572e+01 2.5758944156093207e+03 6.0441740559081984e+02 -7.0867669231655168e+02 -3.5052858415148721e+03 -1.3259210836500864e+02 4.2887625381480475e+03 -5.3530780407754346e+00 2.2515256267606637e+03 -3.6212738910373605e+02 8.4675221612920417e+00 1.2446984557231744e+00 -1.9853011023396039e+02 -5.7365812297077445e+00 3.9848621157971797e+02 6.2611854583638475e+00 -1.2653956561719747e+02 3.0338475418319831e+02 -8.1088743202273292e+00 7.0923612586128247e+03 2.4378634393811378e+00 -1.7006446098799806e+01 -2.6117644181420360e+01 -1.9501658481419327e+02 -6.0328527405106115e+01 5.3957535322879244e+02 1.5094835154200200e+02 2.7746211580351282e+03 1.0712395352296937e+01 2.7531050056901229e+01 1.6188419031178614e+00 -8.5634522694316768e+00 2.3564288078299069e+03 -1.9694739324295006e+02 3.7547298671412477e+01 1.5967979806857065e+03 1.2366978300971925e+02 3.5339326847836094e+02 7.3326916646914642e-01 -2.1197497523630404e+03 -2.7496083998189852e+02 -5.4847349195733228e+00 -1.6448320026229739e+00 2.2380222236878881e+03 6.6420659172827001e-01 -2.0246256793719846e+02 2.0691889986066236e-01 2.4061827511317313e+02 2.7821179319588191e+02 -2.1689033206091919e+00 -1.9415505984396316e+03 -1.1771376076607391e+01 1.0070556587855375e+00 -1.1804784917614597e+01 -3.6260628924173943e+01 1.5376001327301037e+02 -2.6210813991719524e+03 -4.1214010067417757e+02 4.5088020879925955e+02 2.8083771426829035e+01 -3.9253705283373463e+01 -8.0500687461364517e+00 2.4802894696466136e+00 9.1812339717362192e+00 -4.7871401572269292e+02 1.1280975519392427e+02 -2.2854313883382233e+03 3.1750571766718451e+02 7.5802343644421171e+02 -5.1538150316794793e+00 4.0985751633611960e+02 1.2339706267687787e+02 7.3830796229765405e-01 -2.7448541549245009e+00 -1.2027466118425123e+03 -1.1595585281565715e+01 -3.6297486276994459e+02 6.8069774377432619e+00 6.0131420315789956e+02 4.4634879982570101e+03 -1.0345878516962518e+01 3.1693072854678412e+03 -1.1769767575793573e+00 2.5548090638959479e+01 2.1932720166200306e+02 -6.1478731350357339e+02 -2.3157832953429215e+02 -1.1729543740212789e+03 6.7225961053392268e+01 2.2738817136442015e+02 -2.1788666207710044e+01 -6.9207727843479248e+00 2.1812071811513962e+00 -1.9095419332152233e+00 -1.1729128175455339e+03 -2.5476017164891118e+02 -5.2373234991534980e+02 1.3227870284855424e+03 -1.2501529663034489e+01 -6.4834991080175541e+00 -4.2827305067215269e+00 1.3604567231337380e+03 -3.5148697645015739e+02 -9.7428951758228628e+00 3.3619585633547802e+00 3.9499932186292563e+02 -1.0492132470659490e+01 2.4370422110867764e+01 -9.4414979955391676e+00 5.0317496607952603e+02 1.3488841524651434e+02 -2.9249416396516668e+01 -9.8478062165560641e+02 1.9387949954357175e+00 -4.4153626785087809e+01 -6.1702019549491354e+00 -1.6471205699815255e+02 6.4702125444257570e+02 -2.5770890818014027e+02 -6.2482665314168116e+01 -1.0430958172779697e+02 2.2770565659843562e+01 -1.0187739966859165e+02 3.8939842939077214e+00 3.7231658092713502e+00 -1.7895259479995730e+01 2.8087176986153486e+02 5.2197452249528374e+02 -9.9099248917574369e+02 7.0750041011895490e+00 1.6082484440944393e+03 2.1305022353762837e-01 -3.8941572291063389e+03 9.7440896532539591e+02 -7.7968491746462476e+00 -1.0062420392245839e+00 -3.0346089957097101e+03 1.6453855188095229e+01 -2.8035091504327249e+02 -4.0382769889816101e+00 3.4394616164056021e+02 -5.8519625433655119e+02 -3.5792295075981655e+00 -7.5498666954104774e+03 -2.0790212970728390e+01 -4.1314740415259621e+01 -5.2131667153676972e+01 -8.8261510652150355e+02 -3.6291010283957189e+02 4.8075717137966649e+03 -4.5036919774031276e+01 -4.8128748356621036e+03 1.6476690057543223e+01 4.4891130017827834e+00 -2.4761547953238425e+00 1.2146836620765784e+01 -2.2225584494556933e+03 1.2630778277728268e+02 -5.0020226923456619e+01 -2.0666292424183616e+03 -3.6291549857278682e+01 -6.6836210853509283e+02 5.0164902583390791e-01 1.0565213997531989e+03 6.5854289253048626e+02 6.7871192763768189e+00 -4.4907176296981479e+00 -1.2135812220023599e+03 1.0587993064914052e+01 7.8792295579916981e+01 7.4917907444528433e+00 4.7292614191110152e+02 1.3043807458583251e+03 -7.8253381210419999e+00 -2.9723354636025097e+03 1.2614047891302162e+01 -1.5325242625219431e+01 -5.0786793110892177e+00 -5.7921889151810319e+02 3.6152388001728286e+02 1.8149972328830863e+03 -5.4309654676256173e+01 8.2538658940156893e+00 -2.3376372958075812e+01 6.6617614315590686e+01 6.1733587220246022e+00 -9.6629723862422381e+00 -1.1623062125746219e+03 -4.1649905935971638e+01 -1.7877292781741062e+02 -1.5779425469180478e+03 -1.1052107667845223e+02 -8.7126511952689953e+01 5.6707987459281934e+00 2.5997885484447906e+03 2.2507300859635336e+01 -4.8801858910875069e+00 -6.1152994030242747e+00 2.3965754169480970e+03 -1.1010034343283381e-01 -6.1198372012945788e+02 3.6547544699245229e+00 -4.5169796959530913e+02 1.6355460179401371e+03 9.4090709592896360e-01 2.5146964410483142e+03 -1.8700124183283776e+01 1.2252768821223953e+01 -3.7121010404342087e+02 -5.0986063229348292e+02 -7.5027489713251157e+01 -1.4242433856599441e+03 -6.1026534561318715e+02 -2.8110769319755946e+03 3.7883978634717806e+01 -5.4922087116424905e+01 1.3505441390259874e+00 1.9687676342606188e+01 1.2947265996902279e+03 5.4508590829693321e+02 -3.9232938534587942e+02 8.9645170067392587e+02 6.0313041578769230e+01 5.0362877768631506e+01 -7.2031398492166190e+00 1.1950062482330395e+01 3.2394905923619945e+02 1.6416550655961871e+01 4.4010862440343379e+00 -1.2051867512977560e+03 8.4612049630451356e+00 1.0314675757722713e+02 -6.3628401959996808e+00 -4.2729767282950343e+02 -6.9485432491675601e+02 2.6894257896005147e+00 -2.4057615284404847e+03 4.7971491980507057e+00 1.1751696984902892e+01 -1.5884719235314697e+02 2.5309587868027847e+02 5.4959335845596888e+02 -1.3619340838243249e+03 2.2069547866266100e+02 1.5825607388199244e+03 -2.4291222427154402e-01 -4.6104587487132399e+01 -7.1432528958544541e+00 6.9529504313414883e+00 -8.0947491995199744e+02 -2.5073505383442972e+02 1.4450484959534342e+03 1.1530088311247539e+03 -3.4961449109222428e+01 -1.4748399701559688e+03 -1.5573044775821856e+00 -3.7945649697162025e+01 4.9865055941858980e+00 5.3223537841851405e+00 3.9312407806016321e+00 -9.8591014033245415e+02 -5.3081810881825864e-01 6.2040547239114190e+01 -1.6698520272108368e+00 -6.4454402078682278e+01 -9.2191022858537326e+02 -6.8977961011162733e+01 1.9437236997494874e+04 -1.4624510277045786e+01 -4.7297830299351368e+01 1.3477221397450194e+01 -5.5331093619816966e+02 -6.8338085023423969e+02 -4.9872120777026703e+02 -9.1085193109742318e+02 4.7715427606999583e+02 7.1698120717976309e+01 2.7907660897476842e+02 -6.1098797147417439e-01 -2.0481132424175712e+01 -1.7810217616186128e+02 -7.1256313237395193e+02 -9.0230108102534177e+02 7.3857182639571074e+03 3.0668055543855496e+02 -1.5825192402314133e+02 -2.8975053997049489e+00 -1.8464507502336783e+03 3.4452023371263147e+02 -3.3373871493035399e+00 -7.1297352301371824e+00 1.2423898772855355e+03 -9.3955131298013193e+00 6.4088940604070069e+02 7.9302982316090649e+00 3.8971095049953037e+03 -1.4286241848041632e+00 5.4171713968533086e-01 1.2047236425803130e+04 2.0925154542135427e-01 8.3387687104557973e-01 -2.0928372633585627e+02 -2.9260475025505593e+03 -2.9959608308015184e-01 1.5235819952609180e+01 4.3764672228229244e+00 2.0528523321891303e+03 1.6462634148185662e-02 1.1282232985389840e+01 -1.8364015751726015e+00 1.0152630111117475e-01 -5.9845089698623269e+02 8.1699451319913408e+00 -4.7793736000512865e-01 -2.9353890927619341e+02 -1.5856734911477588e+00 -1.6226236187539221e+03 -1.7062788481317426e+00 -3.2690729710374399e+02 1.5522768342069528e+00 -2.5243217008546948e-01 -1.9797723548005948e+00 1.1413132608165834e+03 1.6034623406126229e+00 -9.8235704585165490e+02 3.9276069598866705e+00 -6.3139301530141347e+02 1.6574664983927578e+03 
      </Row>
      <Row Index="3">
        -4.5922286814939980e+01 -3.8344298948187419e+00 -2.0115303135972994e+01 4.7160412109601644e+01 1.4113902664529832e+00 4.0269937340750079e+00 2.0495143185524284e+02 -2.9300605074516625e+01 -3.7072865632730299e+00 3.2885041937099395e+01 -1.7743435220330596e+01 1.6716820398163073e+00 -9.9569052975267951e+00 -4.1137484403328006e-01 -8.3310699377358444e-01 3.2814347403989132e+01 -1.6259481117924224e+01 3.0463838778696761e-01 2.5576322002893903e+00 -1.4764484612016474e+01 -6.3493004373110580e+00 7.6986027689402425e-01 -8.3890349658138348e+00 -1.0461048746903202e+01 4.7893703401450782e-01 -2.4414042895799364e+00 3.3306093474582667e+01 2.6117930739227249e+00 -5.9944555458068862e+00 9.3929007016215778e+00 -5.6009178026511393e+00 -1.1011579713415813e+01 -2.4501971004976384e+00 2.7542168033358166e+01 -1.6707604963579797e+01 5.6478396389889856e+00 -3.3137871585172434e+00 1.1167217470920150e+00 -4.2743915701619699e+01 9.4114189198745976e+01 -4.2662462128298486e+00 -3.1697553536907435e+01 -1.5305224052590916e+00 -1.1156936641800066e+01 -6.3382477985200252e+00 -4.2421056652763589e-01 5.1390444375567313e+01 2.5781987398718627e+01 1.0152958961323520e+01 -1.9127755476153288e+02 -1.6334829955407322e+01 -8.3340641141221596e+01 2.7687432868398520e+00 2.2400883463951232e+01 -6.0999835827431298e+01 6.8950355838934940e-01 6.1229179741470363e-01 4.3597115423966898e+01 -3.6499497024162988e+00 -6.7283043524153072e+00 -2.3997553805986720e+00 1.3033894306982916e+01 1.2499190135613205e+02 9.4300948034381271e-02 -3.4915340582339823e+01 -7.0253585098589948e+00 -5.0149238840538679e-01 1.9955152443631050e+00 -1.7264339194987770e+01 1.6830259266673170e+02 4.7622311038840280e+01 1.3039013599700610e+01 -1.1983205247771372e+02 -1.3723953622555900e+00 1.2498805465621260e+01 -9.3764454801624852e-01 -8.2506630666403613e-01 6.4123351773820559e+01 -1.2600485036804002e+01 -1.2601299972782428e+01 5.1213376620290020e+01 -8.2081224927173242e+00 4.5019231489247431e+01 -3.6040921180483654e-01 -9.7764882879318975e+01 3.4732144445318056e+00 9.2600566141322505e-01 5.7403435886407683e-01 3.4089912404570214e+01 1.0161024543292818e-02 2.7601072178116453e+01 4.0034026162866354e-01 -5.5150010269056054e+01 -8.6416989527142505e+01 2.0173216404238969e+00 -2.4947448002485935e+01 -1.1022474642300775e+01 3.9281015096713849e+00 2.8071907018256752e+00 -2.7029182704953200e+01 9.5124738466501242e+00 -1.8389791358806832e+01 -1.1651530767859413e+01 1.0756276196066619e+02 -4.0741882896206683e-01 7.4405634285561852e+00 -6.2329610098830801e-01 2.2628768860749160e-02 8.6564962645410560e+01 -6.0101962271804723e+00 1.2646348237459051e+01 3.2805677672145066e+00 7.0737395822907629e+00 -1.6064644875180541e+01 -1.0234263256178497e+00 3.6843060343749187e+01 3.3870936955742081e+00 -1.2933155678362951e-03 -9.1183405025274711e-01 1.5220847647739470e+02 -7.3410882345734629e-01 7.0876571154005035e+00 -8.4844394515662613e-01 -3.0160013095684519e+01 -7.5192379299129243e+01 -3.5894342562744597e-01 3.6742398099648284e+01 -4.4464281878960339e+00 8.1032255465415126e-01 -8.2043919764691964e-01 2.0540415036463855e+01 4.3477949380311657e+01 7.0849970421554076e+00 1.4248130126875481e+01 2.2816675346855284e+00 -1.2284398625755681e+00 6.6344069789335496e+00 7.3201843118951970e-01 5.6590120879081163e-02 -2.7009819322196563e+01 1.1588953606416851e+01 3.6551814953081703e+00 1.1382333564952262e+01 -1.0530577605690894e+01 -1.3030990465169221e+01 -1.1582650898119196e+00 -6.7879765193221033e+01 -7.1171755978247830e+00 1.5872231086063771e-01 -9.9315146850161984e-01 -2.7644142136166323e+00 -2.5345489500296567e+00 -1.5619359314814574e-01 6.3705162412857508e-02 -2.9120125391849569e+00 6.6279033568561260e+01 6.1144689198693758e-01 -8.3047643006567853e+00 3.0615738040733351e+00 7.1846802085077499e-01 5.6092269223881885e-01 5.2622113256805278e+01 -1.9712562134584687e+01 1.2880781155032309e+01 -3.6181277954021525e+00 1.9367542531030267e+01 2.1484661623866153e-01 5.4640662969460152e-01 3.3616947291362731e-01 -7.7127107352316671e-01 7.1109171608011820e+01 4.5623935372854021e+00 -2.5272398602224939e+00 2.0585108686660590e+01 -1.8009667074067238e+01 1.3598962555988471e+01 -9.4323188042034545e-02 1.1137094101624143e+00 5.9757239521449037e+00 -8.1108762766627540e-01 -1.4906903498633928e-01 5.5617636524670161e+01 -2.3544596320065603e-01 1.1962901321278423e+00 -6.5569305501730801e-01 1.9365363870181227e+00 9.0604038063182088e+01 1.5044219391009603e+00 -1.8998122944626061e+00 -1.1341320225013067e+00 2.2669740654401096e+00 3.7452125405252445e-01 -1.0613270245549757e+01 4.7712202651174366e+01 -2.1305095270318759e+01 4.7166611559250157e+01 -4.3750232042952547e+01 3.6401130747388777e-01 1.1877258688974951e+01 -5.7479631435989842e-01 -2.9602836620240691e-01 1.4484809187908468e+01 -1.1439242114221543e+01 -7.4842511716594800e+00 6.1894895297154562e+01 -2.0726515820975457e+01 1.2100244973356894e+01 6.1181768751058874e-01 1.9749013538571717e+01 2.5085590160535673e+01 -3.3831699942818982e-01 -7.1625947171607640e-01 1.8451104486854183e+02 1.3507886187218645e+00 -8.0392451760470962e-01 -7.7561322744608718e-01 -8.3033991985448665e+00 2.4677206837899826e+02 -5.1113009324212566e-01 6.1670963876073444e+01 -8.5631895086743341e+00 -5.5508913969197771e-01 3.4075003257967182e+00 -1.5057121672141648e+02 1.0275028603762530e+02 -1.7863824243516433e+00 6.3107354063626531e+00 -5.7021278367990590e+01 -4.0010945014670440e+00 -6.6809303233623929e+00 -2.4001456786139919e+00 8.8702303714326847e-01 3.8893618600630361e+01 -8.4489472260736420e+00 -3.2361890128273842e+01 3.0974170018511359e+01 -6.0068586509392134e+01 4.8522339950953040e+01 -1.3092564669842002e+00 -5.8230531789661200e+00 -1.3212895905524078e+01 6.9975075430871492e-01 5.6572940558199258e-01 -8.2582809682440711e+01 -1.5058043592999439e+00 1.9345399813923905e+00 2.5286950528154724e+00 1.7907776871664169e+01 -1.0996095541828981e+02 -1.2004559976718254e-01 -2.6055233248077911e+01 -4.8706156385620618e+00 -2.7658306439322971e+00 1.4716673818584241e+00 3.8796260514591268e+01 -4.7098859600778269e+01 1.7243058819413847e+01 9.9941554365000229e-01 2.7363796353832186e+01 -6.4806956208496302e-03 -3.1719692481276951e+00 -2.4166318428137723e-01 -1.8509927001015081e-01 9.5675851873820648e+00 -3.1311157726016607e+00 4.8837000271839770e+00 -2.0943987653025317e+01 -2.0213696724148463e+01 -1.5646140483622560e+01 -3.8261733195446457e-01 4.4284941355419505e+01 4.9202029538218994e-01 -5.4792642714983320e-01 5.9371350204540685e-01 3.8561631577937078e+01 -5.0511875750223778e-01 2.4993303292512792e+00 -1.2158949590035530e+00 -4.0680892004386351e+00 -2.0762820356967495e+00 7.2239406828119712e-01 7.1828479418357176e+00 2.3919760406168020e+00 1.9251164622324524e-01 -9.5248841359425569e+00 -9.7338778968405677e+01 4.2183043593495881e+01 -1.6161452678347018e+01 4.1999223634536406e+01 -2.1108376315906412e+01 -2.8286632588246388e+00 9.2927267643506024e+00 -4.3099180815620874e-01 5.8722877710980592e-01 -4.8652098215176011e+01 -2.5513852744621715e+01 -8.0327006843616573e+00 7.1106052723326044e+01 -3.2014485710246987e+00 1.1720348306242840e+01 4.7454394777874304e-01 -5.8238529402657150e+01 1.1203027937458046e+01 8.7320875647653784e-01 -9.7538158872235314e-01 1.5041533051246461e+01 7.6394409516777961e-01 5.0138810637159281e-01 9.2109592795834927e-01 -4.4716281367556007e+01 -1.4859889764391301e+02 -3.4584918634013739e-01 4.6325829509873095e+00 6.6072546475217675e-01 -2.8277430380733648e-01 -8.7635225866401925e+00 -4.7005276508389215e+01 -5.4240068022061635e+01 1.9937648480330949e+00 -1.6669849011784436e+01 -3.1831187783282303e+01 -1.4604534407835033e+00 -4.4318591164013021e+00 -3.3340799852767500e-02 -2.0150628780682922e-01 5.8629884399294951e-01 6.9044324625313571e+00 6.1745490989537259e+00 -1.8355743803610551e+01 -1.0234179925991072e-01 2.0097795588288136e+01 -2.1851523444060206e-01 -4.8433321697876181e+01 -1.6020991432739446e+00 -1.4693035636331553e-01 8.2000872377749182e-02 -4.1142498212609837e+01 -2.1622680383317672e-01 1.4831513191708723e-01 2.2302747912835486e-01 7.0680498694444820e+00 -4.6194438581791474e+01 -2.0987811602325426e+00 -1.4722661771048445e+02 2.4206193681496885e+01 6.0491039939060123e+00 -8.9424745971336961e-01 1.0142875026501406e+02 -4.2513344122120714e+01 3.2717612254496771e+01 3.4065234744628242e+01 3.4917085950412002e+01 -1.0717724617663720e+00 2.7073315865249725e+00 -5.6509295292118304e+00 -1.2208707400266547e+00 -3.7606563205972634e+00 1.0138465029613826e+01 1.5894343221000554e+01 -3.2871524576430147e+01 -8.9021903204049337e+00 -1.9797940268587809e+01 1.8164273481455617e+00 -5.2864906932702070e+01 -2.4260519546546590e+01 8.3738412677167018e-01 -3.0248284714156499e+00 -5.9509547660614771e+01 3.5522877273765863e-01 -3.4701567909257989e+00 5.6650326806923026e+00 -9.3722180595338472e+01 -5.6342315788814512e-01 -3.1140217967276694e-02 -1.3345652191783640e+02 8.6120229944230631e-02 -2.0895428571542957e-01 -6.3415817892450939e+00 3.9408463257639056e+01 3.7582196555829325e-02 -4.9299616407232877e-02 -2.1863298001105030e-01 2.3348612670384796e+01 7.9213047083040444e-03 3.3406728101099592e+00 -2.4753266878770946e-01 2.6561180806117052e-02 3.5182623554164749e+00 -1.9748387339188056e-01 -1.9650577651021961e-01 -7.3372063706310882e+01 -2.2468553213371598e-01 1.9943264926678808e+01 -2.6992336675556361e-01 3.3868079076991613e+01 -8.6083849107545241e-02 -2.6727597284108839e-02 -3.6122483881813400e-01 -6.0673539413243105e+01 2.3525071711677925e-01 2.0068078970784748e+00 1.6835817309009110e-01 5.5400162975880214e+01 -6.5368172570428147e+00 
      </Row>
      <Row Index="4">
        9.1329010845264747e+01 1.0114645165116745e+00 -2.8605248959612450e+01 1.4113913935843128e+00 3.4207461800567195e+01 -1.0906501258740127e+01 8.1366927681055927e+01 6.7107629610042295e+01 9.9391977958336795e+01 2.9920218464146981e+01 -1.0466564901611670e+02 -1.6124677885540706e-01 2.0144306853882323e+01 -5.3258364447552742e-01 -1.1571610030553801e+00 -1.1653376994613132e+02 -2.1993311623417270e+01 -1.2223488989271203e+01 -6.6188328005962831e+01 -2.8756730628326608e+00 -1.3764687059415110e+01 2.6887429415141401e-01 -4.8113415128779877e+01 -2.7978475091368630e+01 -3.9011640545703896e-01 1.0496537049070909e+00 6.2243134938372350e+01 2.7449739630929315e-01 9.1162477123717736e+00 8.8932371374229902e-01 -6.3838290186361178e+01 -2.6779603347872580e+00 -1.4636732386758550e-01 7.7326295382604258e+00 1.1596033628223215e+00 2.1143787671603707e+01 -4.5041535377731634e-01 -4.3152463967023436e+01 -7.6508147092243576e+01 -7.1785973058814223e-01 -3.8533598137719281e+01 6.9628812731582912e+01 7.4911920050760727e-01 -8.0732162584062372e+00 4.9345711034269559e+00 4.5056081240292967e-01 -1.0963872701945502e+02 3.8179538429140536e+01 -1.7188031266093688e+01 2.0638982512297957e+01 2.6758315101208581e+01 4.8468028681043052e-01 2.8449704353274199e+00 -5.1988409509081066e+00 2.2038257764835752e+01 -8.8650616031829027e-02 1.5251185391652895e+00 5.3344642758066584e+01 -1.8470297306345276e+00 -2.1743934214618406e+01 -2.8220654618484140e+00 1.4537596153853815e+02 -6.8664603686220744e+01 -1.0848950232102097e+00 3.5087107278685430e+00 2.9153286699926118e-02 -3.7468533994488937e+00 -7.6335526175005555e+00 1.1110389122081585e+01 -1.0210332343082928e+02 4.8769444655531231e+00 -3.7043413963230478e+01 -3.0471494657310251e+02 -6.1042304817208128e+00 -1.5862841726509398e+01 -1.3490544162238427e+00 -6.5807150840066764e-01 -1.5394979306410141e+02 2.8301145839666233e+01 2.2995243740117090e+01 -2.1634440714382231e+02 1.5113569755596796e+01 -2.9992832932234023e+01 1.9608520346246153e-01 1.0435828313138018e+02 4.4906062956564895e+01 -8.3630469426910770e-01 -1.0140864710889164e+00 -2.5486878732456034e+01 3.6931515310981209e+00 1.7246847797141584e+01 6.9438468814254151e-01 2.9759615814111874e+02 4.3004265254524555e+01 4.2013826860711445e+00 1.5974134421507813e+01 1.1993744909128918e+00 2.9652739965774010e+01 3.7352245755585045e-01 -5.5090295289789992e+01 1.3462179956784450e+02 3.9118461576974909e+01 4.9229515817210199e+01 -1.0311058980404732e+02 4.9854025072979855e+00 2.3171390610252125e+00 9.2984499886603167e-01 6.1938055061285302e-02 1.9179544086832948e+01 -4.3661299655858784e+01 3.2670510775638490e+00 -5.4213208529789370e-01 -9.0447412163737511e+00 9.9138267507126443e+00 4.7263276382017017e-01 -2.7208065175502043e+01 -2.8478627657792671e+01 -2.1330826979940820e-02 5.3848132369456969e-01 -2.8643884329776483e+00 -1.8786896133219675e+00 7.0745640336227886e+00 1.5284123801222271e-01 5.6273878345722288e+00 1.5787935380431009e+00 -2.9227680108510856e-01 1.5861687736034440e+01 6.7120563026655355e-01 1.1149882114411872e+01 6.3111293781548738e-01 3.6901418822995311e+01 -2.3214452818515579e+02 -2.0210102439616257e+01 2.5306821516967247e+01 -9.4395551309730763e-01 -1.3836027869629195e+00 -9.6899454157840559e+00 8.1373748752433830e+00 4.1904429443120966e-01 1.6854505927699029e+02 6.2191508281606787e+00 -3.3990005283563647e+01 2.0703173389050505e+01 2.0859915813873503e+01 -1.5248326131028200e+00 -1.0894731912387217e+00 -1.5549863689338625e+02 5.0908613572693540e+00 4.2013168796347700e-01 -7.9565465692586512e-01 -1.8785332446981420e+02 -2.8057402610528923e+00 7.0055344947559206e-01 -1.7924058058011587e+00 -5.8322872269872477e+00 -1.8293497307935581e+02 4.5110958151237579e-01 -4.7069717650826405e+01 -1.2820340869641456e-03 1.3774412476235272e+00 -1.2836728682304965e-01 -3.6312710730565414e+01 3.3215769265943379e+01 -1.0682569786947376e+01 3.7734935087368626e+00 -1.5903096244801145e+02 2.0590040910788492e+00 -1.7827343510159182e+00 -3.1058483708231788e-01 9.6511150331343742e-01 -1.6293262771933769e+02 -1.0322535408767203e+01 5.8921869894974179e+00 -1.7290785956799573e+02 1.1763697534417048e+01 -1.2335018641883522e+01 -6.9326441041360432e-02 -8.9426849262071414e+01 -7.5427135665208311e+00 8.8739909843781983e-01 7.3329239165693894e-02 6.4815073700673565e+01 -5.7695754811419941e-01 5.5507815695418543e+00 -2.2706996647601788e-01 -5.1944056906362732e+00 8.7306682625381370e+01 1.1684226881977171e+00 -1.6879365007048364e+00 7.8248203627712631e-01 2.3174272571206874e+01 -4.1132405909047520e+00 -4.1629887556937319e+00 -1.4641342609483019e+02 3.1152577364774544e+01 -2.3780126489205884e+01 -1.2469811610282761e+02 -3.7147565232443718e+00 -3.2166615189893388e+00 -4.5112153471954723e+00 2.9701274861302998e+00 2.0128822725257578e+02 -4.0420791003965803e+01 -3.7490340738975306e+01 -2.8918028799514445e+01 1.3298234837569723e+01 9.5002921437439909e+00 -2.0205544594480704e+00 -1.7511715332932397e+01 -3.9930606979165731e+01 3.1093802550762764e+00 2.9250532041612125e+00 3.7244821939877318e+02 -2.5188680292643348e+00 -1.6394195061143829e+01 2.5213769388966614e+00 -2.2725972612763755e+01 2.7520090157702271e+01 -5.4082738889045023e-02 -2.2973593412259628e+01 -3.6306087808031862e-01 2.0670554590742942e+01 -2.6363320674117858e+00 -7.5844320896653244e+01 -2.4444023080267698e+01 6.5617689492369522e+01 -1.1977801096887838e+01 2.4890282094296890e+02 1.0693642722116508e+00 1.0777333588326385e+01 6.9117284778185850e-02 1.7642468604971362e-01 1.5190486630733176e+01 5.4257228840650669e+00 -7.4224805625743784e+00 7.3154876613653684e+01 3.0141568559364513e+00 4.7160059644363358e+01 -5.3831120048785019e-01 1.1532361495011241e+02 -4.9490748952557070e+01 3.7251378318130079e-01 9.9776279553544089e-01 4.5492625435332229e+01 -1.0879752716775910e+00 4.7256301610555909e+00 -4.9474074680409041e-01 -1.5317720127396410e+02 -1.5133643206148008e+01 1.2163110517597224e+00 2.8914020124450758e+01 -5.7376931630810768e-01 -1.7912091100604425e+01 -2.6131829726364231e+00 -6.0916657549458250e+01 -2.6163415883723417e+02 3.5726587007605133e+00 -1.5594369200628876e+01 -1.0317985587063362e+02 8.9292013350767796e-01 -1.6365026374708220e+00 -2.8330689972987813e+00 1.4674512449289066e+00 1.7101894804412586e+02 3.2196788562947667e+00 -1.6062431786779371e+01 -7.8148624165719525e+01 2.0525364707427798e+01 1.3726973007940302e+01 -1.6274660063327002e+00 -1.3704585648691415e+02 4.0207632590608853e+01 1.0921132036806336e+00 7.9728815638871564e-01 4.5106121564442901e+01 -3.2226146312638226e-01 -1.0605903505419633e+01 1.5066922477859723e+00 4.8104336297751274e+01 1.1299844825433752e+02 4.9423708514545250e-01 -3.0446805012163026e+01 7.8549585675838873e-01 1.7928070031976240e+01 8.3276089408782354e+00 -9.6015071851616995e+01 4.2308717648982451e+01 -9.1765538868703800e+00 1.8379425657365260e+01 7.4665532832107147e+01 -2.4954301350425849e+00 3.5936879273881104e+00 3.4756024560236751e+00 -1.1366988787427770e+00 3.7881288444718848e+01 -2.0841374355455443e+01 7.1521596583643259e+00 3.6784409269095590e+00 -5.1375370319109052e+01 1.7701964189522187e+01 1.1011955196718490e+00 6.5402586448775082e+01 1.8192635009156248e+00 -4.2790357811418539e-01 6.0149857710288812e-01 -6.7421301683876436e+01 3.5838689389988776e-01 -4.4575620855041258e+00 9.2328255721411745e-01 -1.6290515408129340e+02 -8.3483676051953807e+01 9.3837213535024611e-02 7.2606679345425515e+00 2.8468334786335703e-03 -7.2838348898469114e+00 -3.9577213783086336e+00 6.3491440123457096e+01 -1.5850419456731981e+02 -2.6213518924731709e+01 -8.2802125181178212e+00 -5.9439941822394530e+01 2.8117971667336583e+00 -1.3212690940788709e+00 6.7032925863426085e-01 -3.7600296460342930e-01 -3.9002528424310003e+02 7.0616673281904223e+00 -1.3494796898849200e+01 2.3754736189841879e+01 1.0295740926527268e+01 -2.3820812544318898e+01 -5.8828912145015622e-02 2.9401456317609586e+01 -4.6252508330586153e+00 -3.8727692632414973e-01 -1.4063203501844809e-01 -1.6928159464784812e+01 -3.2999628854502339e-01 -1.6644293296318207e+00 -7.1705389486102522e-01 2.4643873870921503e+01 5.5292491254818742e+01 6.9103072477851875e+00 -1.6463499414863441e+02 3.8899814267108077e+00 6.2981783201371087e+01 7.3084466299042106e-01 1.0471570222069386e+02 -2.3869893520357678e+01 7.8141688267840777e+01 2.2628910955650817e+01 5.0099420237565937e+00 5.4777977442999948e-02 1.1581139441253820e+01 -2.1961638888243629e+00 1.4341234950412955e+00 2.9591753643986522e+01 -4.8197557881102483e+01 -2.1244442640763509e+01 -4.3856161484768108e+01 -2.2041719093907119e+01 -4.6144311983919806e+01 3.7106360729714183e-01 -5.9260470265610820e+01 -2.0646242993032217e+01 2.0560370181770988e+00 5.2836237443515719e+00 -2.1042666199433370e+01 -4.2460479415383183e+00 -2.1362442215751178e+00 2.9167187041230096e+00 -7.7199203743238485e+01 -8.8054036312151718e-01 -2.8322146736835870e-02 -1.5755272512934889e+02 3.4275447737558973e-03 -1.9096531867483051e+00 -1.5165199540841858e+01 -3.3130733514359420e+01 1.0245818251075596e-01 1.2480124186839278e-01 -2.7649624353326058e-01 -8.4797713612933023e-01 -2.1767921848578758e-02 -4.4506335838183304e+00 1.2592149286255916e+00 -6.0177781962614876e-03 -8.3857361197071370e+01 9.0905458878800971e-02 2.1348627450596575e-01 7.7962997420995421e+01 3.9430035638101313e-01 2.1755305885544857e+01 -2.1792319203985996e-01 2.2880861904845105e+01 -2.4444522441003103e-01 1.8210818960334822e-03 1.0527282855781697e+00 -8.2990013395325576e+01 1.2424944239897773e-01 3.0647253807574128e+01 -1.4800179648654153e+00 1.8986893363554405e+01 -5.4870373829604802e+00 
      </Row>
      <Row Index="5">
        -5.4083090873580313e+03 -1.8563466279933529e+01 3.4718403381466237e+02 4.0269763640947360e+00 -1.0906521546587779e+01 9.9553497744770651e+05 6.4864350942902547e+03 -5.8698196546822817e+02 2.1327302577184929e+02 -3.8942304169834199e+02 8.4634857087509408e+03 -2.4601955992154885e+00 8.2521067866122770e+00 -5.7295190522091268e+01 1.0123771231617132e+01 7.8141571374572040e+03 1.0548097424175585e+03 -1.0784781859070927e+03 -1.1820280175822495e+03 -1.7306450188875294e+02 -1.2294303326472004e+02 -4.0885092849336955e+00 1.3447831463758973e+02 -5.4210966253041647e+01 1.8287818289996192e+01 -4.7371513040182416e+00 1.4152842878094207e+03 2.7677314347077875e+00 -2.4946820933397771e+02 -5.8758202796496661e-01 5.0406915210099709e+02 2.3780151369351051e+03 -1.1933806227035250e+01 5.9306329078141516e+01 1.9548313830590679e+01 9.6252835952711223e+01 -8.1919273820654780e+01 -3.2530558970971779e+03 9.9473054843802947e+02 6.6451754622697683e+02 -1.5973323554658377e+03 3.9789026930068612e+03 -2.2628857851871516e+00 7.1879182820390128e+01 -7.5904258093038720e+01 -7.8816390743450171e-01 2.4817918866751952e+03 2.3249298579516039e+02 -9.9414795088143228e+02 5.6516192493914309e+02 -2.5967293712372589e+02 -2.8440838990085581e+03 1.6590782963084723e+00 -2.2070197693113096e+02 2.4433415363037989e+02 -4.5610218316996232e-01 -2.7107199363465785e+01 -2.1906359227725807e+02 1.4770158565420726e+00 -6.1496503813277559e+02 1.3632563843987825e+01 2.3793112854621345e+03 -1.2857992503385703e+03 -2.0390788501454029e+00 -8.8590493391096152e+02 -6.3901308876012992e+00 6.1266628300005213e+00 -3.2070048291880994e+01 -2.1409525366877569e+03 -5.1923854406736677e+02 4.3183452948814852e+02 1.5376305608518726e+02 8.3789885744614803e+03 8.4208282346062546e-01 -2.0987783762148592e+01 2.8272713100956334e+01 -4.7309733791595132e+00 7.8198681053125983e+02 8.3942185356138862e+02 -4.2716310063501226e+02 2.1434175513528885e+02 -1.3893233792596476e+01 2.1660214569245773e+02 6.0070291437381309e+00 -7.8290830596232900e+02 -1.4651213548347300e+02 -6.5395716594631654e+00 -1.7248433496355697e+00 1.7467718123837403e+02 6.1503167066603357e+00 -2.0509345706053364e+02 -1.4381921757160381e+00 -5.4936581306687867e+02 -1.4051719522752460e+03 -2.3779008570335098e+00 4.5460158172370069e+02 -1.7186034047480785e+01 9.8673940361022723e+00 2.0871704283936288e+02 1.7088561160333729e+03 1.0759969699801050e+03 1.4640348627852603e+02 -1.2491836075278095e+03 -1.5334720405195258e+03 -1.5626062487717412e+01 1.9995145417678870e+01 -1.4135834771821660e+01 3.7052763406653590e+00 -7.5196231366799038e+03 5.7604538142332490e+02 1.8329354162968757e+03 -1.5461386322720150e+03 4.9468394699877933e+00 -1.1356398020723984e+03 4.9110297020830025e+00 -3.2136988780210595e+02 2.3363916389757208e+02 7.1077044567094907e+00 -1.6651491407581204e+01 -1.3053419384826000e+03 1.4682797055843238e+01 8.7330339687312403e+01 -3.2658535134460185e+00 2.7140295224873091e+02 -2.1008312865969747e+03 -4.0160771836124125e+00 2.0723888724607559e+02 -2.6038801612873850e+00 -2.2314347981990714e+00 -1.1819821156328544e+02 -1.8762837678057649e+03 -5.4180311110408184e+02 -1.2993704981621360e+02 -4.8368551089162156e+02 -5.5716160179465078e+01 -1.4073960621685302e+00 1.2947658366143692e+01 -5.9460251485470181e+01 -1.3888094705776277e+00 2.5190018583695783e+03 5.5780500421693023e+02 -3.0392025790068419e+02 -2.3012202369734050e+03 -9.2980866420352299e+01 3.7109341711643333e+02 5.5689782454761296e+00 -2.5497649983677388e+02 2.9700747424404983e+02 -2.0145510973071268e+00 -1.5796484363576102e-01 -2.9964952643199122e+03 -1.0229632069932688e+00 2.0166032802389236e+02 1.2419731981166173e+01 -4.2827030591705352e+02 1.0787091015936676e+03 4.3583143879283668e+00 -5.0020454506515540e+02 8.2193150442821263e+00 -1.9698957250032514e+00 -3.3240877137240022e+02 1.2104420315498251e+03 1.4431137395105793e+02 -1.6460262162010724e+02 1.4693713150291546e+02 1.4933260422430594e+03 -1.1465153994099033e+00 6.5603673285979713e+00 3.3192378130556479e+00 -3.0591584083740599e+00 6.6194108583542911e+03 -4.1232098461467899e+01 -7.8077594820378101e+02 -5.4304867438144254e+02 -1.8317885709607418e+02 4.7535594673110154e+01 -4.8734626264771030e-01 -3.6468107300375323e+01 3.8678146449676092e+01 4.1182740081277984e+00 1.9461539740573346e+00 -2.1775948614633126e+03 9.2172644213073696e-01 -2.1334689618463221e+02 -7.6077505425306347e-01 -1.1323051391258423e+02 9.1123517733836741e+02 5.5110854049156410e+00 -8.5455044574359931e+01 1.3573686807685206e+01 2.4792519667970879e+01 5.8632570001587737e+01 2.8635776563492618e+03 -5.1472469948305115e+02 -4.1257271823765359e+02 -8.4788674548763424e+01 -4.3814664998354128e+03 -6.1437235095787415e+00 1.3966216157057957e+01 -1.1480376618557298e+01 -9.1303278779861508e+00 -4.2630219967774356e+03 1.0187783493914407e+03 -3.0654303619928032e+02 1.2850736868415704e+03 -1.8867561602966113e+01 5.4331999658496693e+02 9.4773948715933187e-01 8.4135919396502914e+01 3.0606216323669298e+02 -5.9081253072911473e+00 -1.1108312798152109e+01 -1.1897469654941656e+03 3.5181076462292573e+00 3.8830663250120068e+01 -7.9440241725315364e+00 6.4194247263570219e+00 -4.4299725482449503e+03 3.8729092460997983e-01 5.4316208011571871e+02 -1.2689183435788436e+01 -2.1406521509279358e+01 -4.7955115166911855e+02 2.6957414055453723e+03 5.0096229325686863e+02 -2.9735672461494477e+02 -1.7861698403227979e+02 7.5173626808720583e+03 6.2586668745095082e+00 -2.1518245933500296e+01 -2.4712793317116500e+01 3.6877864991069482e+00 7.0095622730442265e+03 -7.1076716682088204e+01 -1.9527248746644193e+02 3.1878155396254306e+02 -1.2076627690186628e+02 -7.3086617199606917e+02 -7.2298107297210312e-01 3.4162815604009666e+02 2.9160644066127998e+02 2.4460155761307902e+00 -1.2367239844167717e+01 -1.8745260974155099e+03 -2.8108838491897217e+00 -6.7136427009018917e+01 2.1194899075521301e-01 1.0303654468252216e+02 -2.8086082827410855e+03 2.6431145651837028e+01 -4.2935380436296646e+02 -7.5344404332269814e+00 -2.2097821304136112e+01 -4.3469624654133804e+02 2.2525691050152959e+03 -3.3800634194140475e+03 -6.9748461715449139e+01 2.3274089314050741e+02 1.6713653636563577e+03 3.5155898361886550e+01 -2.6063431746412320e+00 5.1427323877496463e+00 -1.0367855348889417e+01 4.2329672156211054e+03 -2.8676763943444433e+02 -6.6393765997296578e+02 1.0834733560305549e+03 -8.0038627736554417e+00 -3.2221399879037267e+02 -4.2737450871589289e-01 1.1789712936351207e+03 -6.0817049969820937e+02 -2.3879842836424743e+01 5.2053840895152659e+00 -3.8647736311447784e+03 -1.5549565613114609e+01 3.7671133829464520e+02 -1.1695506243499874e+01 -1.8238514032193143e+02 -2.8021446543064530e+02 -3.5538668165795386e+01 -1.7111227455736616e+02 2.9642871292149138e+01 1.1268847624896532e+02 4.0909328722017817e+03 1.3363006326512623e+03 1.2002689401337766e+03 5.8515215892124047e+02 -1.1656821278508131e+02 5.0255015338886515e+03 -4.7594083773220802e+01 7.1021579433771933e+01 -1.7458200983908192e+01 1.3144009558499807e+01 -1.4170151767639667e+04 7.0534992990969556e+01 1.1536563290301046e+01 -1.4071418088211258e+03 -1.1727931753065229e+02 4.1306264184978181e+02 1.1171880902160058e-01 -3.8243351238137529e+02 -8.5883362709665789e+01 2.8719748984264633e+01 -2.0488903977857717e+01 4.9853366431135337e+03 6.6223321269757527e+00 -1.3888124213400448e+02 1.5008100845941268e+01 4.3426345177812505e+02 -7.9567289125844036e+02 7.7050240150582816e-02 2.1274257105366183e+02 2.7709531174867981e+00 1.0728176576609030e+01 5.9168355972180143e+02 -2.5853619420082396e+02 2.1854099057273072e+02 4.1320683748166573e+01 1.3025210529916797e+02 1.2507228476382094e+04 1.8992300303531614e+01 -8.0328130397087705e+00 5.4695724474184182e+00 2.6126800576763443e-01 -3.9598146587524666e+03 7.3682467022235505e+02 -8.1540277242130992e+02 9.4484194602124671e+02 -5.1833181504837484e+01 -2.8270561633325428e+02 3.4961215919517281e+00 7.4039822348277085e+01 3.2629553407454972e+02 1.7449456832116916e+00 -1.5933825244464277e+00 4.0312345451916044e+03 4.8021437869609160e+00 -4.1135226221409482e+01 3.1516558276095417e+00 9.4495524372457851e+01 -1.6661413819960871e+03 -3.1636063263205763e+01 5.1906832235059483e+02 2.8267316279246970e+01 1.5235058693114962e+02 6.0418413901235908e+01 7.4709451884616283e+02 -6.4829682392744394e+02 9.0547507413234166e+02 -2.4376349253383014e+03 6.4712586450642266e+02 -3.5534240887554837e+01 1.5323395806664703e+02 -1.0288901690013431e+02 7.8407022091394936e+00 -9.8687670594785595e+02 3.1238359872215042e+03 8.8961882153862643e+02 -1.6278882001686543e+03 -2.7801246417412301e+02 -1.7129689826448011e+03 3.8815912822217049e+00 -3.1669927863085468e+02 2.5760286998058655e+02 2.3060227559915049e+01 -4.9610909686237505e+01 1.3340815011551604e+02 1.2763943055165914e+01 -5.4147074316148178e+02 1.1218681138082445e+01 2.4096251527460863e+03 -1.0665930531092373e+01 -3.8916290245099294e-02 8.5523544295569650e+01 8.8722646940409003e-02 -7.8465272078480708e-01 1.0034189057360952e+03 -1.3220636487142539e+02 2.3091634467572675e-02 -6.4128389958057141e-02 8.2238140806122573e-01 1.5242820795385712e+03 -9.9879292540095088e-02 1.4916066294342272e+01 -1.3178823444266811e+01 7.9047006545258813e-02 4.2990695787800860e+03 -1.3769318566912027e+01 -4.6361994523956866e+01 -7.2353636463931571e+02 -1.1278161741126951e+00 -9.5737147326220565e+01 3.5134768244825487e-01 -3.9980626779935187e+02 2.0405144265570057e+00 5.7852456399827279e-02 -1.5076470623430113e+01 -1.1790630932217830e+03 4.3680073607973213e-01 -6.3496017875540565e+02 7.3767810954158222e+00 -2.1419013272326339e+02 7.9903881807087464e+02 
      </Row>
      <Row Index="6">
        -3.1424682011909899e+03 1.7797317812009737e+01 1.3405576889088179e+03 2.0495144268122183e+02 8.1366973981078559e+01 6.4864353184364736e+03 6.6647938477702928e+05 5.1410463332061408e+02 6.7099199054832434e+02 4.1417335599009120e+03 -4.7281970200820666e+04 -1.4351050946521150e+02 8.1267821703673792e+02 9.7902657188161399e+01 -3.8547504911294993e+01 1.1964810232295684e+04 -7.2735477106587205e+03 6.4672041326766757e+03 2.1848840020538250e+04 -1.9116369226377681e+03 -2.6077822491011611e+03 4.3117039984658255e+01 5.7996530189271725e+03 -6.7917524891746052e+02 5.2433602914590836e+00 1.1364263054824293e+02 3.0131684537257242e+03 -8.2130252436294001e+01 4.4772590671445723e+03 3.1007093936130232e+01 -1.3083246174920905e+03 2.7389170660935866e+04 6.0199290931329870e+01 5.2260733376456319e+03 5.2883302633585856e+01 -2.0221452670025670e+02 4.8924740532128089e+03 -7.5808443378926197e+04 6.3758313886930482e+03 9.2502505574045317e+03 1.3205737063163046e+04 -8.7050380990738049e+03 2.9868318243123923e+02 -4.7721485236047755e+02 4.1219701749011739e+02 -1.0324400864423455e+02 -3.0432570440864351e+04 -1.5207394811285576e+03 5.2917360690495043e+03 -5.7955616860398368e+03 6.4469937499582547e+03 1.2096317462481238e+03 1.0751462423140626e+02 2.9712679531610556e+03 -9.2923512317612040e+02 -5.6200884834465796e+01 1.1566280679616608e+02 -1.0190151621440382e+03 6.6689703079907417e+01 -9.5709288309006297e+03 -2.3157706059366831e+02 1.5558119167493554e+04 2.0597409505908508e+04 -4.6369032173415995e+01 -2.4128354308370899e+03 5.9554005893892672e+01 8.4761726346430521e+01 4.2257274515632525e+03 -6.9411395028569605e+03 1.5528959027907862e+04 1.9989278899932560e+02 3.5773345160106965e+02 7.0858372832543682e+03 3.2280007513415882e+02 -6.9732635095875139e+02 -1.3785390611932468e+02 -1.4563912930191091e+01 -1.1382479961629775e+04 1.9724886057191952e+03 2.5538294652576947e+03 -4.0692848483398760e+04 3.1853656239535117e+03 4.9592879661492916e+03 -1.1689518310665481e+01 3.6217658004609984e+02 2.2534806159463751e+03 5.9684592533738993e+01 -7.4235615724104420e+01 -1.0985530384893878e+04 -2.9724045322471653e+01 -1.1146843198012211e+03 -6.6667293953247679e+01 1.4855323535245396e+04 -3.6005858617355727e+04 -2.7104007201401146e+00 3.1871474607254459e+03 -1.0660619926887168e+02 1.7800449210995217e+02 -2.8769657246975694e+03 -2.1968255963664968e+04 -6.0827194126073246e+03 -1.3684168921831263e+03 -3.1566860184925299e+03 3.2460801484915428e+03 -1.1039197544882336e+02 -2.0514048916317563e+02 1.5149421366542623e+02 -1.5827114703763954e+01 1.3642125311822863e+04 -1.6837644316363221e+03 1.8186517796269891e+03 -1.7826628959636710e+03 -7.7825699960083966e+01 -7.2884301373802919e+02 -6.0106732524472221e+01 2.2909911558070817e+03 5.0100024256029155e+02 -2.4589382517539654e+01 9.5422538666047870e+01 2.1761450423557650e+04 -7.9988949364128999e+01 6.6627658099600012e+01 -1.4045102212291535e+01 8.8689294409288414e+02 -4.9573934508039922e+04 4.4201839817438469e+01 5.0575284317209553e+03 3.5436997906393373e+01 -1.6670489146437541e+02 -9.4329523200495169e+02 -2.3252773186537059e+04 -7.2308836647559001e+03 3.3845051343537398e+02 2.5586292911814689e+03 1.0360359969645215e+03 1.5583934329015966e+02 -2.1762301443854227e+02 3.2508984267187572e+02 -2.3930817196216800e+01 1.7394422621670819e+03 2.3411678756036628e+02 -2.5390218364040538e+03 5.8737421483839844e+03 -3.9746989522704562e+03 -3.0932218019614643e+03 5.1029030857917670e+00 7.1931393473271992e+03 -3.9707204624423201e+02 -2.5987136780993819e+01 9.5685445581526395e+01 2.7719439724167245e+04 1.7889078929952579e+01 4.8894480871199630e+02 2.2709833081792212e+01 4.6250199312453333e+02 -6.5708933437861779e+03 2.2755086791487898e+01 -3.3492316693492285e+02 -1.3454018777711326e+01 -4.0214391750038516e+01 2.1804487124551088e+03 9.4180615754703176e+03 -3.2862978840009409e+03 -1.5192430671500006e+01 -2.1011717722525646e+02 -7.7603809607654111e+03 -2.0376013570436430e+02 -6.4860531742788538e+01 -1.1682865924774376e+01 8.3443708368577063e+00 -2.6499947448623367e+04 -8.4631870113241530e+02 4.1382054544513949e+02 8.2107578786066624e+03 -1.7496915940130943e+03 1.9957719887524568e+03 -1.4733528038682344e+01 5.5998354799782164e+03 -5.8916540737752439e+02 -4.1771231638700911e+01 -9.3873824271326587e+00 -1.2056644749373008e+03 -6.3400811458183028e+00 -5.3207679521565387e+02 1.0327524353300497e+01 8.6968040508635158e+02 1.3112247064877534e+04 1.9827553473293608e+02 -6.0655127458149054e+03 -2.6307267551801786e+01 3.6077507246750554e+02 4.1047562355670379e+01 4.6133113677026733e+04 4.5299921202259102e+03 -4.8489713569782680e+00 -4.2019864752834692e+03 5.0065009945377067e+04 7.5563759913118702e+01 -2.0394684193551083e+02 1.2818524634602022e+02 3.4076583495275855e+01 -8.4663532527205534e+03 5.2727914503982447e+02 1.2485107040154944e+03 -1.1937625196752131e+04 -7.6590399133851861e+02 6.6001184970297181e+03 1.5214711746393586e+01 6.7380832984856534e+02 -7.3932618600769274e+02 -3.1247730886146229e+01 1.1006662020995131e+02 9.1218758811425068e+03 5.7833928554017604e+01 6.2067205734226991e+02 3.0884159720242280e+01 -2.0992378882726434e+03 2.2321132385845835e+04 3.8857374630751529e+01 -7.7807904473989202e+03 4.2353903104492929e+01 4.8808751523402589e+02 5.3817254518903792e+02 5.2585775068255374e+04 1.4499259513957542e+04 5.7922522835486780e+02 -1.8567098624216524e+03 -1.5880794945209127e+04 -1.1746943495858528e+02 3.7671008672973028e+02 1.5056585769613937e+02 -7.8526471556490947e+00 -1.2400135146251734e+04 -1.7345305674902193e+01 4.0444886092266388e+03 -9.3327016825532082e+03 -2.9734423783102972e+02 8.7806158930612073e+03 -8.6885812800788429e+00 -1.0185663084553089e+03 -3.5387548074489755e+03 -2.3720784375097153e+01 5.3434785271912119e+01 5.5666855024720207e+03 -1.8058340042727409e+01 5.9592830572243838e+02 -4.2738769487223124e+01 -9.7674568500679397e+03 -2.5770533299300441e+04 1.1866080108824804e+01 -1.0809995229614760e+03 1.0515511744744663e+02 -3.5722106432516625e+01 4.1862386245280504e+02 1.4946789381327224e+05 1.4861558067223574e+04 2.7503587834773134e+02 7.0211949558644278e+02 -6.2454354050011316e+03 4.5823059480618929e+02 4.2366516539628060e+02 -7.7121099673056108e+01 -2.8192438491088097e+01 -3.4506527093610173e+04 -3.0642856861572034e+02 2.5986172963376848e+03 -2.8223189621290767e+03 2.7525021913026767e+03 -1.0908290947364371e+03 5.8867959867475733e+01 -7.9912912869002903e+03 3.0151028889299778e+02 1.0618467074256159e+00 1.9599614805478538e-01 9.4050124244960607e+03 8.5951957939222211e+01 -1.8050938992932788e+03 5.4805689644895793e+01 5.7805822525947292e+02 1.4611061374890705e+03 4.9956938552610829e+01 -2.1443688618715578e+03 -5.7078867847920208e+01 -1.4522118839972620e+02 -9.2408467527609318e+03 1.5837134460818878e+05 -5.4806627811935796e+03 4.3041952405255870e+01 -1.9934697759137595e+02 -3.1347579456342501e+03 -1.0904791962998479e+02 -7.1608625254191679e+01 2.1338326247561935e+02 -5.0664397449457738e+01 3.7297709391866694e+04 -9.9854833029938618e+02 1.1693900418874073e+03 5.8326664880134385e+03 4.4130711562806664e+03 5.6002034946496133e+02 3.0233979663082394e+01 9.2294289786609152e+03 1.9293113690829891e+03 -6.3693445633131986e+01 1.1080456350761284e+02 6.4181861857554177e+03 2.0118944639299169e+01 5.3259479873869725e+02 -4.6740801622657031e+00 -6.9210565305073469e+03 -1.1905984671844635e+03 -1.8855334968746433e+00 5.7641412925850091e+01 2.0149277457110415e+00 5.1201738502760691e+01 5.6946914249348920e+03 -3.2796410142068496e+04 5.6849693657268381e+03 7.3262763603078656e+02 -1.3349751437586747e+01 -5.3073942555127935e+04 -1.9084506125600035e+02 8.6021015162060962e+01 -1.0501638059975335e+01 -6.6341785816395351e+00 -2.1404473067704108e+04 -1.0821127121057361e+03 6.7720999097033073e+03 -5.3145407862675984e+02 -4.5253130619978401e+02 4.4278624234217459e+03 -3.8461391483797911e+00 -7.0534590597466095e+03 -1.9416751002152037e+03 2.9657595508995223e+00 -1.2344264078188086e+01 -1.3904621535935064e+04 -1.7193162051233038e+01 -2.4786453608243164e+02 -6.8352339141027016e+00 1.6360204959932150e+02 1.5689516239910969e+04 2.1393188350003004e+02 -1.1167635626636384e+04 1.4189641914568040e+02 5.7899563672445595e+01 -3.7638705363124609e+02 1.6636303594119498e+04 6.5068246585189663e+03 5.6604926656342832e+03 7.0820100286199449e+03 -1.5611012642739806e+04 3.6682124187180966e+02 3.4708191920500121e+02 4.9193830093168367e+02 -1.5532212006809368e+02 -7.6698290177620947e+02 -9.7851495893261363e+03 4.0332591491228304e+03 6.5288533299094843e+02 8.8315312078955430e+03 4.1549535146263370e+03 1.2911384292405569e+02 1.1734420639972086e+03 -5.3924049694724090e+02 -1.1208246433198138e+02 3.6845934662886941e+02 -1.4261984001064091e+04 1.0070421615977523e+00 3.6538704808967573e+03 -7.3360945661991536e+01 1.5208073834634165e+03 -1.5415739991272574e+02 -3.0424255937266254e+00 -1.1060895419824841e+04 -5.1461784104349606e-01 -1.5639592050170190e+01 -8.3452023090759594e+03 6.7223751186613263e+03 4.3118867085738088e-01 -3.0758181512854321e+00 -1.5381797490014719e+00 -1.0286388758470262e+04 1.1432536811914886e+00 -1.2725068088346234e+02 8.9079683316131650e+01 5.0354692096497433e-01 -1.3269649532650449e+03 -7.6291500146584212e+00 1.9422457218954094e+02 9.6039719026426046e+03 -2.3846763348911736e+01 -5.1542057058374612e+03 -1.9645157235821387e+00 -4.5661641836373474e+03 -1.8969461117288276e+01 -1.3539154934191373e+00 7.2372792947521802e+01 1.3848946095499887e+03 4.7978626084648113e-01 -9.1952939031436399e+03 -4.0615322448156121e+01 1.9392699852349790e+03 4.1248714763760408e+03 
      </Row>
      <Row Index="7">
        4.6536092742712935e+02 -2.2415294389096161e+00 -1.9939964497788242e+03 -2.9300602680755162e+01 6.7107576702158440e+01 -5.8698123544827104e+02 5.1410684955155011e+02 3.9639126634595700e+05 -1.2586308131261239e+02 -8.7113255790789481e+01 -9.3314546371842846e+02 3.7666137668102442e+02 -1.4245584851935632e+03 1.2697556009522862e+02 -3.0344334213088473e+01 8.4295104629937559e+03 2.4776933597937241e+03 4.7577479949932131e+03 -9.4134623580622429e+03 -3.7647834074734601e+02 -3.8146881678827758e+03 4.4515574041389101e+01 8.3311617498120540e+03 -8.9134076404291909e+02 -1.4330827979962583e+01 -1.0693861975473234e+02 9.2258279888355173e+02 8.6070420644272218e+01 1.0751166709695717e+03 5.7394504739066861e+01 -9.9507902473239665e+02 1.5448365213338984e+03 -7.8269448664334078e+00 -1.3881313123199652e+03 -1.0908246219714738e+02 -4.1700639824651512e+02 -9.3820976851755404e+01 -6.4257048312952975e+02 -4.2147780562161817e+04 3.1926902650647980e+02 1.4062306110657810e+03 -6.3430552402831381e+03 -7.3258628726415122e+02 2.3491681121855390e+02 -1.9984494436347813e+02 -7.4379242513465385e+01 3.4159941874162760e+03 1.8170889736297340e+03 7.3787948979067733e+02 2.5783948964946612e+03 -1.1671001667787568e+03 -4.6540430822898024e+03 6.3133576545217885e+01 -3.3784208113936184e+03 3.2272738960293063e+03 -1.2285987762423190e+02 -6.8256726356969295e+01 -4.1375894516659901e+02 -3.9017506429392756e+02 -2.1354121157717891e+03 -1.5625990843694063e+02 -3.5336229400174634e+03 8.0083775763690937e+03 -1.5493958474541614e+01 -1.9834520167658202e+03 1.2103228632200512e+02 -1.4178562824001091e+02 1.9450339681333571e+02 -8.1089761164862721e+03 -3.9018784793897037e+04 1.6931334545860536e+03 -4.1044652000614715e+03 7.4768283718075909e+03 -1.9533669010280420e+02 -1.3614748467469326e+02 4.0308988628787313e+02 -6.1395435618655758e-01 -5.6774046801477671e+03 -5.7968436460253724e+02 1.2563719294465500e+02 -2.0618371928753872e+03 -9.4074206431144921e+02 3.8688807521111448e+02 -2.3010652743646641e+01 1.2536065873197513e+03 -9.4837330479562661e+02 -3.0590441438647900e+01 -1.0585920656797813e+02 -2.3376635227864608e+02 -8.2809445832980259e+01 8.3556932449749002e+02 4.7655540350287538e+01 1.6312491822777083e+03 -1.1939833444536198e+03 -4.0423673774455807e+01 -4.5888263766451018e+02 1.3038806486419935e+02 1.4845351452986029e+02 4.7814062614561590e+02 -5.5315360683461186e+03 -8.3213702690627775e+04 6.1731002324329893e+01 4.0286244569986593e+02 2.8102861728528515e+03 4.7097171300325363e+02 2.8044327075851942e+02 1.1850059606898071e+00 4.9575693386470022e+01 -6.6114989467227133e+02 -1.8694796807472449e+02 2.2730248591251438e+00 2.4876188496903560e+03 1.6530597256776537e+03 -2.8433199269190300e+03 -7.5464551222187424e+01 -9.1881844174112484e+02 1.1290197567079231e+03 4.4939747932979053e+01 -3.7127734800122319e+01 -1.0469901850892173e+04 -4.8852385059667796e+01 -1.0722895287800748e+03 6.6768103329207690e+01 -3.6755175319784757e+03 -9.2163375810543075e+03 5.0803898622767019e+00 1.1171319631218867e+03 4.9236183287639292e+00 -8.3989382858911995e+01 8.5840943731367588e+01 -3.2372918007186527e+03 2.6803380770468910e+04 -4.4001428481448238e+02 -4.0524090274625996e+02 1.1828379862904549e+03 -1.4527585563250881e+01 -2.0050819348396692e+02 -3.2200077682529752e+02 -5.6885653168220102e+01 -8.3404864426703425e+03 8.9239448027825938e+02 3.9095148729941793e+03 -8.6981645120034082e+03 1.9393883444355015e+02 1.3051172733138441e+02 -4.5941139061934848e+01 2.8617645243610264e+03 2.4316404276589346e+03 -5.4348538440309916e+01 3.6206082188400771e+01 -7.7988049232438443e+03 -1.5199480047804920e+02 5.7078275162493810e+02 -7.6275082751998724e+00 -5.3919843308788404e+02 3.7997494067852494e+03 7.0151325755277867e+00 -2.0949319831991970e+03 -5.9505339607744190e+01 2.2336040439324734e+00 -7.7861546829342842e+01 1.8766509804179077e+03 9.0860816019695558e+03 -3.4327523220146395e+02 2.4249810152578575e+03 3.4931254665052402e+03 5.5226226268583446e+01 2.3592374894005587e+01 -5.8351284582826821e+01 -8.9033999184612185e+00 -4.4251746034649550e+03 2.1651814354005910e+02 -3.2705099894026353e+02 -1.0227277802506200e+04 -1.8304603760885402e+03 9.6665389201581002e+02 -9.0693021095081576e+00 2.1994929111063248e+03 3.9856617186871881e+02 1.2218604977157611e+01 4.1485906740801312e+01 -8.4933865699367598e+03 2.7755288690985935e+00 -1.6625241929879988e+02 -1.5123782824801282e+01 1.3167047057205357e+03 7.7624360070610419e+03 -2.5450099854912139e+01 2.8098226697044011e+03 -8.4003527240892026e+01 2.2978805021945823e+02 6.0647744754329324e+01 1.6988236934452434e+03 -1.8474449473702341e+04 2.7028843309658414e+03 -6.2988490918469652e+03 -1.2901214171422034e+03 -4.7290373182737812e+02 -6.4107824977863743e+01 -4.0017289642614389e+02 -7.9647209816534996e+00 1.8655850026242842e+03 -1.9222231020331710e+03 -2.6837599746079686e+03 -1.4141805666115688e+03 -8.8499416945999474e+02 5.3647916709841811e+03 -7.1549438617803929e+01 -2.0218420915437455e+03 -2.5578975334308634e+03 -2.1847510807485634e+01 1.1668040076577779e+02 -4.9565642170980573e+02 1.6035215542031466e+01 6.6646936411614524e+02 -1.0792144079162881e+01 -3.9307075019221738e+03 6.8287858009387710e+03 2.3141087773261496e+01 4.4855042741602811e+03 1.8362980670636171e+02 6.7832591083694524e+01 -1.3203962130844593e+02 8.2586892709368840e+03 8.0872957317833265e+04 -1.3347384064211947e+03 -2.3874435764215668e+03 -5.0716172347886022e+03 1.9631444284445956e+02 -8.8519490928234291e+01 -1.0458087865973710e+02 -5.0608982842283822e+01 8.3655075090372702e+03 3.9786394823509181e+02 2.2455163379666847e+03 7.1785457575543260e+03 -6.8497424649728930e+02 6.5345452653022076e+03 -7.5129296984960376e+00 -2.8676079529935960e+03 -3.7811743337144435e+02 -5.5836868498148988e+01 -2.4185473989103855e+01 2.4334204471490812e+03 -1.0510072221735612e+01 -2.0897007760862471e+02 -9.9383710735950970e+01 1.5851070248707365e+03 3.7158468581601046e+03 -2.0421205535032527e+01 1.4493784136448376e+03 -4.8200107959051110e+01 -2.8778155314830451e+02 3.3080092045664787e+02 7.6749784097432857e+03 -7.2725419193203648e+04 -2.4286976895995940e+03 -1.7369999073802001e+02 6.6623101900012698e+03 -2.9163779504182639e+02 3.3480201923776713e+02 1.5849248837988631e+02 3.7839670656464023e+01 4.6833962874386925e+03 -5.8463991705385763e+02 -2.6833690786240277e+02 2.6070919627677940e+03 -1.1027106189576953e+03 -2.0768138645928921e+03 2.5119345608358259e+01 7.9822474590095226e+02 2.2530523253745196e+02 6.1334909235869645e+01 -1.3845699010872011e+01 -4.3449251534349751e+03 4.1889410770281643e+01 1.1546738669287588e+03 4.8736840383932773e+01 1.1310463690269389e+03 4.5223102444499964e+03 4.5416958164630557e+01 -1.1017469727821735e+03 1.3027998410316110e+02 1.5740642209402426e+02 2.3822239893488586e+02 -6.8622970901754452e+03 -3.4991526519056752e+04 9.2104641157804713e+02 -2.9096213725062594e+03 5.0933089704361046e+03 1.0579397357780294e+02 -2.7730103512755068e+02 -1.4180471989768856e+02 1.8905872518131417e+01 1.0220305837937049e+03 -6.0387472930624790e+02 2.4481955424955813e+03 2.0515942722959880e+02 1.4301550142236119e+03 2.1764623158168833e+03 -2.8448940582233174e+01 5.0883203923581750e+03 -3.3788720740371355e+02 -5.9922399815958105e-01 7.9143942995281655e+00 -4.5753013282869942e+03 3.7043355551470043e+00 -2.3384374484591717e+02 -1.1296575428318896e+01 4.9140180381968094e+03 -4.7581342011332454e+03 2.0855789753371710e+00 2.4622632704927673e+02 1.5588936690211312e+01 -1.8620953110302730e+02 7.2125241172034293e+00 -3.6563228761477512e+03 -5.4296005407708806e+04 -4.0975250141119432e+02 1.1329613938016664e+03 4.1611577385755008e+03 2.3245165282426160e+02 2.2877006223328158e+02 1.2440452410470272e+02 6.2070988478834906e+01 -3.1278461402959074e+03 -1.9095922890491784e+02 1.7385011491425521e+03 -1.7421882735780091e+03 8.7468582358689673e+01 3.3364312406781828e+03 5.3315391544691124e+00 -2.3600860753863817e+03 6.6806825269023250e+02 5.1792273821776313e+01 -1.0961870194960722e+01 -3.9460178482728079e+03 -7.6997598534343297e+00 -2.2136649523399683e+02 -1.1963317467775596e+00 8.5265065031578229e+02 -1.4816213844348677e+03 -5.1188837900868918e+01 -2.1163614961751082e+03 1.1463875736724276e+00 -1.0622118290820936e+02 -3.1662470646202564e+01 4.7256304902576376e+03 1.9866021531165726e+05 8.3533883887163029e+02 -2.5406607108630960e+03 4.4149421978117898e+03 -1.3888816081437403e+02 -3.7698260494143892e+02 -1.3022580604071533e+02 2.6477023007193509e+01 3.1422179122804664e+02 2.2171779574132961e+03 -1.2942123910955270e+03 6.8027959788203225e+02 1.0497587324501555e+03 1.0108248690818436e+02 -4.5280568897157877e+01 2.9476966881331755e+03 1.6500109915991934e+03 -1.0173040087586571e-01 -1.1021021627118108e+02 7.5093158487393521e+02 -1.9269506284576627e+02 -2.8929576011916488e+03 7.2772688655472663e+01 -2.9414246099707198e+03 -7.7283873239844905e+00 -3.8571546662997264e-01 -3.1409567267263624e+03 -2.4384272145237933e+00 -1.1411592991034002e+01 6.8697555090405126e+02 -2.3707608084863577e+03 4.3244612789461286e+01 -8.8245730489402554e+00 1.9017435142264496e+01 1.6997551485292977e+03 -1.7212401828121067e+00 1.9391322253185297e+02 -5.7362090636089476e+01 5.7942650523450112e-01 4.9642598536307190e+02 -2.2867850805934012e+01 8.5130209377860766e+01 -6.1240489855577862e+03 -2.1443256603962404e+01 2.2835818739922743e+03 -1.1728652240454780e+01 -4.0493955873154746e+03 1.2764041806090320e-01 -7.4061856074950860e-02 -4.3898576046489168e+01 -5.3331098952682723e+03 1.3198135624828891e+01 2.5502858122326988e+03 -2.6838894566280310e+01 4.7797126859956597e+03 -2.3572594941520069e+03 
      </Row>
      <Row Index="8">
